{"learner":{"attributes":{"scikit_learn":"{\"_estimator_type\": \"classifier\"}"},"feature_names":[],"feature_types":[],"gradient_booster":{"model":{"gbtree_model_param":{"num_parallel_tree":"1","num_trees":"300"},"iteration_indptr":[0,3,6,9,12,15,18,21,24,27,30,33,36,39,42,45,48,51,54,57,60,63,66,69,72,75,78,81,84,87,90,93,96,99,102,105,108,111,114,117,120,123,126,129,132,135,138,141,144,147,150,153,156,159,162,165,168,171,174,177,180,183,186,189,192,195,198,201,204,207,210,213,216,219,222,225,228,231,234,237,240,243,246,249,252,255,258,261,264,267,270,273,276,279,282,285,288,291,294,297,300],"tree_info":[0,1,2,0,1,2,0,1,2,0,1,2,0,1,2,0,1,2,0,1,2,0,1,2,0,1,2,0,1,2,0,1,2,0,1,2,0,1,2,0,1,2,0,1,2,0,1,2,0,1,2,0,1,2,0,1,2,0,1,2,0,1,2,0,1,2,0,1,2,0,1,2,0,1,2,0,1,2,0,1,2,0,1,2,0,1,2,0,1,2,0,1,2,0,1,2,0,1,2,0,1,2,0,1,2,0,1,2,0,1,2,0,1,2,0,1,2,0,1,2,0,1,2,0,1,2,0,1,2,0,1,2,0,1,2,0,1,2,0,1,2,0,1,2,0,1,2,0,1,2,0,1,2,0,1,2,0,1,2,0,1,2,0,1,2,0,1,2,0,1,2,0,1,2,0,1,2,0,1,2,0,1,2,0,1,2,0,1,2,0,1,2,0,1,2,0,1,2,0,1,2,0,1,2,0,1,2,0,1,2,0,1,2,0,1,2,0,1,2,0,1,2,0,1,2,0,1,2,0,1,2,0,1,2,0,1,2,0,1,2,0,1,2,0,1,2,0,1,2,0,1,2,0,1,2,0,1,2,0,1,2,0,1,2,0,1,2,0,1,2,0,1,2,0,1,2,0,1,2,0,1,2,0,1,2,0,1,2,0,1,2,0,1,2,0,1,2,0,1,2],"trees":[{"base_weights":[-2.850499E-1,2.6742297E-1,-6.622074E-1,-6.3934433E-1,1.1214954E0,7.2E-2,-2.0431331E-1,-1.9965874E-1,-7.663455E-9,2.459016E-1,3.8475838E-1,5.9999996E-1,-1.4400001E-1,7.2E-2,2.1724138E-1],"categories":[],"categories_nodes":[],"categories_segments":[],"categories_sizes":[],"default_left":[0,0,0,0,0,0,0,0,0,0,0,0,0,0,0],"id":0,"left_children":[1,3,5,7,9,-1,-1,-1,-1,11,-1,13,-1,-1,-1],"loss_changes":[3.5021065E1,5.3809517E1,1.8572655E0,5.673361E-1,4.7135887E0,0E0,0E0,0E0,0E0,2.0301638E0,0E0,4.9655437E-2,0E0,0E0,0E0],"parents":[2147483647,0,0,1,1,2,2,3,3,4,4,9,9,11,11],"right_children":[2,4,6,8,10,-1,-1,-1,-1,12,-1,14,-1,-1,-1],"split_conditions":[-2.3086122E-1,-1.0290933E0,-2.3514755E0,2.9342797E0,1.772012E-1,7.2E-2,-2.0431331E-1,-1.9965874E-1,-7.663455E-9,-4.9693856E-1,3.8475838E-1,9.893614E-1,-1.4400001E-1,7.2E-2,2.1724138E-1],"split_indices":[2,2,6,5,1,0,0,0,0,2,0,0,0,0,0],"split_type":[0,0,0,0,0,0,0,0,0,0,0,0,0,0,0],"sum_hessian":[1.6622221E2,6.755555E1,9.8666664E1,3.2888885E1,3.4666664E1,1.7777777E0,9.6888885E1,3.1555553E1,1.3333333E0,5.7777777E0,2.8888887E1,3.9999998E0,1.7777777E0,1.7777777E0,2.222222E0],"tree_param":{"num_deleted":"0","num_feature":"7","num_nodes":"15","size_leaf_vector":"1"}},{"base_weights":[5.641196E-1,1.3195876E0,-4.7269896E-1,4.0746793E-1,-1.4400001E-1,3.6734694E-1,-1.8119803E-1],"categories":[],"categories_nodes":[],"categories_segments":[],"categories_sizes":[],"default_left":[0,0,0,0,0,0,0],"id":1,"left_children":[1,3,5,-1,-1,-1,-1],"loss_changes":[1.3160614E2,7.3967285E0,1.6610134E1,0E0,0E0,0E0,0E0],"parents":[2147483647,0,0,1,1,2,2],"right_children":[2,4,6,-1,-1,-1,-1],"split_conditions":[4.9199116E-1,4.068523E-1,1.2480826E-1,4.0746793E-1,-1.4400001E-1,3.6734694E-1,-1.8119803E-1],"split_indices":[3,4,4,0,0,0,0],"split_type":[0,0,0,0,0,0,0],"sum_hessian":[1.6622221E2,9.599999E1,7.022222E1,9.422221E1,1.7777777E0,4.444444E0,6.577777E1],"tree_param":{"num_deleted":"0","num_feature":"7","num_nodes":"7","size_leaf_vector":"1"}},{"base_weights":[-2.790698E-1,-6.3314104E-1,1.1561462E0,-6.901288E-1,6.315789E-1,-3.2511625E-8,3.7689534E-1,-3.600001E-2,-2.0913841E-1,7.9999995E-1,-7.663455E-9,1.2857142E-1,-1.2857145E-1,7.2E-2,3.1034482E-1],"categories":[],"categories_nodes":[],"categories_segments":[],"categories_sizes":[],"default_left":[0,0,0,0,0,0,0,0,0,0,0,0,0,0,0],"id":2,"left_children":[1,3,5,7,9,11,-1,-1,-1,13,-1,-1,-1,-1,-1],"loss_changes":[8.570909E1,1.014978E1,3.8732986E0,4.3289185E-1,6.736841E-1,8.5714287E-1,0E0,0E0,0E0,4.0827584E-1,0E0,0E0,0E0,0E0,0E0],"parents":[2147483647,0,0,1,1,2,2,3,3,4,4,5,5,9,9],"right_children":[2,4,6,8,10,12,-1,-1,-1,14,-1,-1,-1,-1,-1],"split_conditions":[1.1119624E0,2.0584452E0,-2.3514755E0,-1.2502335E0,9.893614E-1,-1.5900854E0,3.7689534E-1,-3.600001E-2,-2.0913841E-1,-1.3376158E0,-7.663455E-9,1.2857142E-1,-1.2857145E-1,7.2E-2,3.1034482E-1],"split_indices":[4,5,6,6,0,1,0,0,0,1,0,0,0,0,0],"split_type":[0,0,0,0,0,0,0,0,0,0,0,0,0,0,0],"sum_hessian":[1.6622221E2,1.3377777E2,3.2444443E1,1.2844444E2,5.333333E0,2.6666665E0,2.9777777E1,1.7777777E0,1.2666666E2,3.9999998E0,1.3333333E0,1.3333333E0,1.3333333E0,1.7777777E0,2.222222E0],"tree_param":{"num_deleted":"0","num_feature":"7","num_nodes":"15","size_leaf_vector":"1"}},{"base_weights":[-2.3526916E-1,2.0716842E-1,-5.7913333E-1,-5.580164E-1,7.8312016E-1,5.584616E-2,-1.7940128E-1,-1.7517684E-1,-1.2309779E-3,1.9895265E-1,2.639971E-1,4.052112E-1,-5.4541416E-2,4.889561E-2,1.5205735E-1],"categories":[],"categories_nodes":[],"categories_segments":[],"categories_sizes":[],"default_left":[0,0,0,0,0,0,0,0,0,0,0,0,0,0,0],"id":3,"left_children":[1,3,5,7,9,-1,-1,-1,-1,11,-1,13,-1,-1,-1],"loss_changes":[2.35516E1,3.044498E1,1.3666611E0,4.2559242E-1,2.0468597E0,0E0,0E0,0E0,0E0,6.1376107E-1,0E0,3.4844697E-2,0E0,0E0,0E0],"parents":[2147483647,0,0,1,1,2,2,3,3,4,4,9,9,11,11],"right_children":[2,4,6,8,10,-1,-1,-1,-1,12,-1,14,-1,-1,-1],"split_conditions":[-2.3086122E-1,-1.0290933E0,-2.3514755E0,2.9342797E0,-3.6923996E-1,5.584616E-2,-1.7940128E-1,-1.7517684E-1,-1.2309779E-3,-4.9693856E-1,2.639971E-1,5.4787433E-1,-5.4541416E-2,4.889561E-2,1.5205735E-1],"split_indices":[2,2,6,5,6,0,0,0,0,2,0,4,0,0,0],"split_type":[0,0,0,0,0,0,0,0,0,0,0,0,0,0,0],"sum_hessian":[1.5301512E2,6.709017E1,8.592496E1,2.882528E1,3.8264893E1,1.8544677E0,8.407049E1,2.7485607E1,1.3396721E0,5.87713E0,3.238776E1,3.7704372E0,2.1066928E0,1.8840826E0,1.8863547E0],"tree_param":{"num_deleted":"0","num_feature":"7","num_nodes":"15","size_leaf_vector":"1"}},{"base_weights":[4.168987E-1,8.9473677E-1,-3.969526E-1,2.757613E-1,-1.3065049E-1,2.6920894E-1,-5.207731E-1,-1.6176902E-1,-3.1515568E-1,-3.4662064E-2,-1.1013695E-1],"categories":[],"categories_nodes":[],"categories_segments":[],"categories_sizes":[],"default_left":[0,0,0,0,0,0,0,0,0,0,0],"id":4,"left_children":[1,3,5,-1,-1,-1,7,-1,9,-1,-1],"loss_changes":[6.711583E1,3.9307938E0,1.0756048E1,0E0,0E0,0E0,5.4828644E-2,0E0,3.3152938E-2,0E0,0E0],"parents":[2147483647,0,0,1,1,2,2,6,6,8,8],"right_children":[2,4,6,-1,-1,-1,8,-1,10,-1,-1],"split_conditions":[4.9199116E-1,4.068523E-1,1.2480826E-1,2.757613E-1,-1.3065049E-1,2.6920894E-1,1.9444877E0,-1.6176902E-1,1.2325641E0,-3.4662064E-2,-1.1013695E-1],"split_indices":[3,4,4,0,0,0,1,0,2,0,0],"split_type":[0,0,0,0,0,0,0,0,0,0,0],"sum_hessian":[1.7067015E2,1.0747107E2,6.3199085E1,1.0583343E2,1.6376421E0,4.972584E0,5.82265E1,5.194155E1,6.2849493E0,1.9640467E0,4.320903E0],"tree_param":{"num_deleted":"0","num_feature":"7","num_nodes":"11","size_leaf_vector":"1"}},{"base_weights":[-2.2950281E-1,-5.5003136E-1,7.960533E-1,-6.0773283E-1,5.129727E-1,-2.0632833E-2,2.5823617E-1,-2.5742019E-2,-1.8450066E-1,6.345853E-1,3.7009409E-3,1.0571619E-1,-1.2204602E-1,6.0776338E-2,2.4147283E-1],"categories":[],"categories_nodes":[],"categories_segments":[],"categories_sizes":[],"default_left":[0,0,0,0,0,0,0,0,0,0,0,0,0,0,0],"id":5,"left_children":[1,3,5,7,9,11,-1,-1,-1,13,-1,-1,-1,-1,-1],"loss_changes":[5.1047295E1,7.5427437E0,1.9775066E0,3.7321854E-1,3.9473665E-1,6.7622805E-1,0E0,0E0,0E0,2.2690344E-1,0E0,0E0,0E0,0E0,0E0],"parents":[2147483647,0,0,1,1,2,2,3,3,4,4,5,5,9,9],"right_children":[2,4,6,8,10,12,-1,-1,-1,14,-1,-1,-1,-1,-1],"split_conditions":[1.1119624E0,2.0584452E0,-2.3514755E0,-1.2502335E0,9.893614E-1,-1.5900854E0,2.5823617E-1,-2.5742019E-2,-1.8450066E-1,-1.3376158E0,3.7009409E-3,1.0571619E-1,-1.2204602E-1,6.0776338E-2,2.4147283E-1],"split_indices":[4,5,6,6,0,1,0,0,0,1,0,0,0,0,0],"split_type":[0,0,0,0,0,0,0,0,0,0,0,0,0,0,0],"sum_hessian":[1.5295909E2,1.1688986E2,3.6069225E1,1.11277824E2,5.6120377E0,2.6990566E0,3.337017E1,1.7044673E0,1.0957336E2,4.299952E0,1.3120853E0,1.4174536E0,1.2816031E0,1.8350618E0,2.4648905E0],"tree_param":{"num_deleted":"0","num_feature":"7","num_nodes":"15","size_leaf_vector":"1"}},{"base_weights":[-2.0149273E-1,1.7044574E-1,-5.171317E-1,-4.9604475E-1,6.1046666E-1,4.3320663E-2,-1.6096649E-1,-1.56894E-1,-1.0301296E-3,1.6067271E-1,2.058606E-1,3.8878995E-1,-1.1904309E-1,4.7875702E-2,1.4027141E-1],"categories":[],"categories_nodes":[],"categories_segments":[],"categories_sizes":[],"default_left":[0,0,0,0,0,0,0,0,0,0,0,0,0,0,0],"id":6,"left_children":[1,3,5,7,9,-1,-1,-1,-1,11,-1,13,-1,-1,-1],"loss_changes":[1.6064215E1,1.8844194E1,1.026535E0,3.3911705E-1,1.2022734E0,0E0,0E0,0E0,0E0,1.0264621E0,0E0,2.2384167E-2,0E0,0E0,0E0],"parents":[2147483647,0,0,1,1,2,2,3,3,4,4,9,9,11,11],"right_children":[2,4,6,8,10,-1,-1,-1,-1,12,-1,14,-1,-1,-1],"split_conditions":[-2.3086122E-1,-1.0290933E0,-2.3514755E0,2.9342797E0,1.772012E-1,4.3320663E-2,-1.6096649E-1,-1.56894E-1,-1.0301296E-3,-4.9693856E-1,2.058606E-1,9.893614E-1,-1.1904309E-1,4.7875702E-2,1.4027141E-1],"split_indices":[2,2,6,5,1,0,0,0,0,2,0,0,0,0,0],"split_type":[0,0,0,0,0,0,0,0,0,0,0,0,0,0,0],"sum_hessian":[1.350844E2,6.2222942E1,7.286146E1,2.4693256E1,3.7529686E1,1.8947268E0,7.096673E1,2.3354612E1,1.338644E0,5.8583465E0,3.1671337E1,4.371971E0,1.4863753E0,1.8922861E0,2.479685E0],"tree_param":{"num_deleted":"0","num_feature":"7","num_nodes":"15","size_leaf_vector":"1"}},{"base_weights":[3.3708468E-1,6.98724E-1,-3.3867764E-1,2.154829E-1,-1.18817426E-1,2.1950532E-1,-4.5433936E-1,-1.7612594E-1,-4.0678075E-1,-1.2732613E-1,-2.5126353E-1,-2.065931E-2,-9.166004E-2],"categories":[],"categories_nodes":[],"categories_segments":[],"categories_sizes":[],"default_left":[0,0,0,0,0,0,0,0,0,0,0,0,0],"id":7,"left_children":[1,3,5,-1,-1,-1,7,-1,9,-1,11,-1,-1],"loss_changes":[3.94255E1,2.527439E0,7.3363905E0,0E0,0E0,0E0,8.7418556E-2,0E0,6.6576004E-3,0E0,4.486975E-2,0E0,0E0],"parents":[2147483647,0,0,1,1,2,2,6,6,8,8,10,10],"right_children":[2,4,6,-1,-1,-1,8,-1,10,-1,12,-1,-1],"split_conditions":[4.9199116E-1,4.068523E-1,1.2480826E-1,2.154829E-1,-1.18817426E-1,2.1950532E-1,3.0343595E-1,-1.7612594E-1,1.9444877E0,-1.2732613E-1,1.2325641E0,-2.065931E-2,-9.166004E-2],"split_indices":[3,4,4,0,0,0,1,0,1,0,2,0,0],"split_type":[0,0,0,0,0,0,0,0,0,0,0,0,0],"sum_hessian":[1.5935887E2,1.03784065E2,5.557481E1,1.0230093E2,1.4831414E0,4.9002857E0,5.0674522E1,1.0373948E1,4.0300575E1,3.464217E1,5.6584067E0,1.8177933E0,3.8406134E0],"tree_param":{"num_deleted":"0","num_feature":"7","num_nodes":"13","size_leaf_vector":"1"}},{"base_weights":[-1.9587454E-1,-4.887197E-1,6.1635953E-1,-5.4825675E-1,4.3036228E-1,-3.6332197E-2,2.008247E-1,-1.933934E-2,-5.56138E-1,1.7285301E-1,2.093797E-1,8.809425E-2,-1.15774766E-1,-2.9241797E-1,-1.6928583E-1,7.646359E-2,-5.3461227E-3,2.5250658E-2,-1.3545865E-1],"categories":[],"categories_nodes":[],"categories_segments":[],"categories_sizes":[],"default_left":[0,0,0,0,0,0,0,0,0,0,0,0,0,0,0,0,0,0,0],"id":8,"left_children":[1,3,5,7,9,11,-1,-1,13,15,-1,-1,-1,17,-1,-1,-1,-1,-1],"loss_changes":[3.264464E1,5.735321E0,1.2874641E0,3.2570648E-1,3.3924603E-1,5.390649E-1,0E0,0E0,3.521347E-2,7.85259E-2,0E0,0E0,0E0,3.296995E-1,0E0,0E0,0E0,0E0,0E0],"parents":[2147483647,0,0,1,1,2,2,3,3,4,4,5,5,8,8,9,9,13,13],"right_children":[2,4,6,8,10,12,-1,-1,14,16,-1,-1,-1,18,-1,-1,-1,-1,-1],"split_conditions":[1.1119624E0,2.0584452E0,-2.3514755E0,-1.2502335E0,2.6423347E0,-1.5900854E0,2.008247E-1,-1.933934E-2,-1.4638506E0,5.4787433E-1,2.093797E-1,8.809425E-2,-1.15774766E-1,-1.2951705E0,-1.6928583E-1,7.646359E-2,-5.3461227E-3,2.5250658E-2,-1.3545865E-1],"split_indices":[4,5,6,6,5,1,0,0,1,4,0,0,0,2,0,0,0,0,0],"split_type":[0,0,0,0,0,0,0,0,0,0,0,0,0,0,0,0,0,0,0],"sum_hessian":[1.3497737E2,9.950122E1,3.547615E1,9.382671E1,5.674514E0,2.6906915E0,3.2785458E1,1.6511157E0,9.21756E1,3.7303944E0,1.9441196E0,1.466468E0,1.2242234E0,3.8681476E0,8.830745E1,2.372879E0,1.3575153E0,1.2887983E0,2.5793493E0],"tree_param":{"num_deleted":"0","num_feature":"7","num_nodes":"19","size_leaf_vector":"1"}},{"base_weights":[-1.7586882E-1,1.4388618E-1,-4.6554697E-1,-4.4320625E-1,4.9851435E-1,3.696425E-2,-1.4586428E-1,-1.4153613E-1,-8.636999E-4,-4.4741116E-2,5.339801E-1,4.0438656E-2,5.5359024E-1,1.7048576E-1,6.959051E-2],"categories":[],"categories_nodes":[],"categories_segments":[],"categories_sizes":[],"default_left":[0,0,0,0,0,0,0,0,0,0,0,0,0,0,0],"id":9,"left_children":[1,3,5,7,9,-1,-1,-1,-1,-1,11,-1,13,-1,-1],"loss_changes":[1.09498415E1,1.20072975E1,8.128872E-1,2.7359152E-1,9.010992E-1,0E0,0E0,0E0,0E0,0E0,1.9250965E-1,0E0,2.039051E-2,0E0,0E0],"parents":[2147483647,0,0,1,1,2,2,3,3,4,4,10,10,12,12],"right_children":[2,4,6,8,10,-1,-1,-1,-1,-1,12,-1,14,-1,-1],"split_conditions":[-2.3086122E-1,-1.0290933E0,-2.3514755E0,2.9342797E0,2.6583028E-1,3.696425E-2,-1.4586428E-1,-1.4153613E-1,-8.636999E-4,-4.4741116E-2,4.9199116E-1,4.0438656E-2,-3.638999E-1,1.7048576E-1,6.959051E-2],"split_indices":[2,2,6,5,4,0,0,0,0,0,3,0,2,0,0],"split_type":[0,0,0,0,0,0,0,0,0,0,0,0,0,0,0],"sum_hessian":[1.164924E2,5.561085E1,6.088155E1,2.084758E1,3.4763268E1,1.896379E0,5.8985172E1,1.950979E1,1.3377901E0,1.638421E0,3.3124847E1,1.9197694E0,3.1205078E1,2.9108126E1,2.0969536E0],"tree_param":{"num_deleted":"0","num_feature":"7","num_nodes":"15","size_leaf_vector":"1"}},{"base_weights":[2.84249E-1,5.8042777E-1,-2.8968292E-1,5.9821844E-1,-1.10417254E-1,1.8838654E-1,-3.9626554E-1,1.9084656E-1,4.7687998E-1,-1.6421664E-1,-3.440928E-1,5.399342E-1,2.642617E-1,-3.6270905E-1,-1.9307189E-1,3.0157711E-2,1.7334075E-1,1.5077028E-1,2.6311135E-2,-2.6571393E-1,-1.242455E-1,-8.472171E-2,-1.0251173E-1,-1.3868105E-1,-4.796555E-2,-8.215587E-3,-3.198707E-2],"categories":[],"categories_nodes":[],"categories_segments":[],"categories_sizes":[],"default_left":[0,0,0,0,0,0,0,0,0,0,0,0,0,0,0,0,0,0,0,0,0,0,0,0,0,0,0],"id":10,"left_children":[1,3,5,7,-1,-1,9,-1,11,-1,13,15,17,19,21,-1,-1,-1,-1,23,-1,25,-1,-1,-1,-1,-1],"loss_changes":[2.4449295E1,1.8156719E0,5.069536E0,1.2561035E-1,0E0,0E0,1.6466284E-1,0E0,2.0844555E-1,0E0,3.1114101E-2,2.620921E-1,2.903856E-1,4.4081688E-2,6.906448E-2,0E0,0E0,0E0,0E0,2.0680481E-1,0E0,3.1703003E-3,0E0,0E0,0E0,0E0,0E0],"parents":[2147483647,0,0,1,1,2,2,3,3,6,6,8,8,10,10,11,11,12,12,13,13,14,14,19,19,21,21],"right_children":[2,4,6,8,-1,-1,10,-1,12,-1,14,16,18,20,22,-1,-1,-1,-1,24,-1,26,-1,-1,-1,-1,-1],"split_conditions":[4.9199116E-1,4.068523E-1,1.2480826E-1,1.2480826E-1,-1.10417254E-1,1.8838654E-1,3.0343595E-1,1.9084656E-1,1.772012E-1,-1.6421664E-1,1.9444877E0,3.521612E-2,8.334481E-1,5.5590546E-1,1.3656029E0,3.0157711E-2,1.7334075E-1,1.5077028E-1,2.6311135E-2,-8.9605457E-1,-1.242455E-1,1.2325641E0,-1.0251173E-1,-1.3868105E-1,-4.796555E-2,-8.215587E-3,-3.198707E-2],"split_indices":[3,4,4,4,0,0,1,0,1,0,1,2,2,1,2,0,0,0,0,2,0,2,0,0,0,0,0],"split_type":[0,0,0,0,0,0,0,0,0,0,0,0,0,0,0,0,0,0,0,0,0,0,0,0,0,0,0],"sum_hessian":[1.418417E2,9.3552444E1,4.8289253E1,9.219249E1,1.359957E0,4.5160418E0,4.3773212E1,6.700149E1,2.5191006E1,8.797774E0,3.4975437E1,1.8241762E1,6.949243E0,2.988929E1,5.0861487E0,1.7373108E0,1.6504452E1,2.1716385E0,4.7776046E0,1.2495071E1,1.7394218E1,3.84977E0,1.2363787E0,3.1942613E0,9.30081E0,1.6861074E0,2.1636627E0],"tree_param":{"num_deleted":"0","num_feature":"7","num_nodes":"27","size_leaf_vector":"1"}},{"base_weights":[-1.6963142E-1,-4.3843046E-1,5.028041E-1,-5.0046426E-1,3.6843202E-1,-4.9598467E-2,1.6532153E-1,-1.0285292E-2,-5.095191E-1,1.4408964E-1,1.8188384E-1,7.308195E-2,-1.0948772E-1,-2.3714656E-1,-1.5563175E-1,6.361299E-2,-4.3199644E-3,3.5235956E-2,-1.2267862E-1],"categories":[],"categories_nodes":[],"categories_segments":[],"categories_sizes":[],"default_left":[0,0,0,0,0,0,0,0,0,0,0,0,0,0,0,0,0,0,0],"id":11,"left_children":[1,3,5,7,9,11,-1,-1,13,15,-1,-1,-1,17,-1,-1,-1,-1,-1],"loss_changes":[2.1466747E1,4.414379E0,9.348011E-1,3.15588E-1,2.653203E-1,4.2661884E-1,0E0,0E0,7.1863174E-2,5.3812973E-2,0E0,0E0,0E0,3.150012E-1,0E0,0E0,0E0,0E0,0E0],"parents":[2147483647,0,0,1,1,2,2,3,3,4,4,5,5,8,8,9,9,13,13],"right_children":[2,4,6,8,10,12,-1,-1,14,16,-1,-1,-1,18,-1,-1,-1,-1,-1],"split_conditions":[1.1119624E0,2.0584452E0,-2.3514755E0,-1.2502335E0,2.6423347E0,-1.5900854E0,1.6532153E-1,-1.0285292E-2,-1.4638506E0,5.4787433E-1,1.8188384E-1,7.308195E-2,-1.0948772E-1,-1.2951705E0,-1.5563175E-1,6.361299E-2,-4.3199644E-3,3.5235956E-2,-1.2267862E-1],"split_indices":[4,5,6,6,5,1,0,0,1,4,0,0,0,2,0,0,0,0,0],"split_type":[0,0,0,0,0,0,0,0,0,0,0,0,0,0,0,0,0,0,0],"sum_hessian":[1.1654523E2,8.35107E1,3.303453E1,7.7901184E1,5.609517E0,2.6523163E0,3.0382212E1,1.5754728E0,7.632571E1,3.7130773E0,1.89644E0,1.4923457E0,1.1599706E0,3.382762E0,7.294295E1,2.3623147E0,1.3507625E0,1.2071599E0,2.175602E0],"tree_param":{"num_deleted":"0","num_feature":"7","num_nodes":"19","size_leaf_vector":"1"}},{"base_weights":[-1.5324262E-1,1.1168008E-1,-4.3960726E-1,-4.2763507E-1,3.6759374E-1,-1.5050454E-1,-3.7395525E-1,-1.9309841E-1,-1.3955234E-1,4.210981E-1,-1.284345E-1,-1.6348891E-1,-1.457882E-1,-1.0507265E-1,1.1777089E-2,8.561793E-2,1.5015046E-1,5.3002196E-3,-2.4432741E-1,1.8809478E-1,-5.3042877E-2,-1.2800913E-1,-4.612441E-2,-3.0394495E-2,1.0009591E-1,-9.1653E-2,3.4873042E-2],"categories":[],"categories_nodes":[],"categories_segments":[],"categories_sizes":[],"default_left":[0,0,0,0,0,0,0,0,0,0,0,0,0,0,0,0,0,0,0,0,0,0,0,0,0,0,0],"id":12,"left_children":[1,3,5,7,9,-1,11,13,-1,15,-1,17,-1,-1,-1,19,-1,-1,21,23,-1,-1,25,-1,-1,-1,-1],"loss_changes":[7.6995792E0,7.497079E0,1.0712624E-2,6.492448E-2,1.7386632E0,0E0,5.7065773E-1,1.6472419E-1,0E0,8.842163E-1,0E0,1.6666111E-1,0E0,0E0,0E0,2.4482338E-1,0E0,0E0,2.5982636E-1,2.9255283E-1,0E0,0E0,2.3879376E-1,0E0,0E0,0E0,0E0],"parents":[2147483647,0,0,1,1,2,2,3,3,4,4,6,6,7,7,9,9,11,11,15,15,18,18,19,19,22,22],"right_children":[2,4,6,8,10,-1,12,14,-1,16,-1,18,-1,-1,-1,20,-1,-1,22,24,-1,-1,26,-1,-1,-1,-1],"split_conditions":[-1.4899155E-1,1.2480826E-1,-3.277378E-1,-1.2951705E0,3.0129346E-1,-1.5050454E-1,-2.0764646E-1,-1.0851463E0,-1.3955234E-1,1.772012E-1,-1.284345E-1,7.004095E-1,-1.457882E-1,-1.0507265E-1,1.1777089E-2,-6.299772E-1,1.5015046E-1,5.3002196E-3,1.772012E-1,-1.4282092E0,-5.3042877E-2,-1.2800913E-1,8.334481E-1,-3.0394495E-2,1.0009591E-1,-9.1653E-2,3.4873042E-2],"split_indices":[6,4,1,2,2,0,3,1,0,1,0,2,0,0,0,2,0,0,1,2,0,0,2,0,0,0,0],"split_type":[0,0,0,0,0,0,0,0,0,0,0,0,0,0,0,0,0,0,0,0,0,0,0,0,0,0,0],"sum_hessian":[9.984407E1,5.2180584E1,4.7663483E1,1.6576365E1,3.560422E1,2.108546E1,2.6578024E1,3.1348002E0,1.3441564E1,3.3802116E1,1.802105E0,1.0085771E1,1.6492254E1,1.5674001E0,1.5674001E0,6.867045E0,2.693507E1,3.3530805E0,6.7326903E0,5.142263E0,1.7247818E0,2.906003E0,3.826687E0,1.8225296E0,3.3197336E0,1.1338117E0,2.6928754E0],"tree_param":{"num_deleted":"0","num_feature":"7","num_nodes":"27","size_leaf_vector":"1"}},{"base_weights":[2.4429624E-1,4.9740762E-1,-2.4701649E-1,5.145536E-1,-1.03201546E-1,1.6774637E-1,-3.4449342E-1,5.548747E-1,3.9066514E-1,-1.5471345E-1,-2.8811207E-1,3.3903104E-1,1.7312315E-1,4.5554468E-1,1.8799086E-1,-1.0893116E-1,-2.3258747E-1,1.9031748E-2,1.20495126E-1,1.4159056E-2,1.4862998E-1,1.3254328E-1,5.3971433E-3,-2.7650908E-1,1.23004E-3,-1.3140328E-1,-6.465505E-2,9.808196E-2,-1.1082978E-1],"categories":[],"categories_nodes":[],"categories_segments":[],"categories_sizes":[],"default_left":[0,0,0,0,0,0,0,0,0,0,0,0,0,0,0,0,0,0,0,0,0,0,0,0,0,0,0,0,0],"id":13,"left_children":[1,3,5,7,-1,-1,9,11,13,-1,15,17,-1,19,21,-1,23,-1,-1,-1,-1,-1,-1,25,27,-1,-1,-1,-1],"loss_changes":[1.5609203E1,1.3675365E0,3.5724888E0,1.8922043E-1,0E0,0E0,2.2780085E-1,8.679962E-2,2.2121167E-1,0E0,4.711175E-2,1.1122185E-1,0E0,2.531016E-1,3.0968902E-1,0E0,2.1535373E-1,0E0,0E0,0E0,0E0,0E0,0E0,7.926607E-2,6.407009E-1,0E0,0E0,0E0,0E0],"parents":[2147483647,0,0,1,1,2,2,3,3,6,6,7,7,8,8,10,10,11,11,13,13,14,14,16,16,23,23,24,24],"right_children":[2,4,6,8,-1,-1,10,12,14,-1,16,18,-1,20,22,-1,24,-1,-1,-1,-1,-1,-1,26,28,-1,-1,-1,-1],"split_conditions":[4.9199116E-1,4.068523E-1,1.2480826E-1,1.2480826E-1,-1.03201546E-1,1.6774637E-1,3.0343595E-1,-1.2951705E0,1.772012E-1,-1.5471345E-1,-8.9605457E-1,-1.4638506E0,1.7312315E-1,3.521612E-2,8.334481E-1,-1.0893116E-1,9.893614E-1,1.9031748E-2,1.20495126E-1,1.4159056E-2,1.4862998E-1,1.3254328E-1,5.3971433E-3,4.296707E-1,-6.299772E-1,-1.3140328E-1,-6.465505E-2,9.808196E-2,-1.1082978E-1],"split_indices":[3,4,4,4,0,0,1,2,1,0,2,1,0,2,2,0,0,0,0,0,0,0,0,1,2,0,0,0,0],"split_type":[0,0,0,0,0,0,0,0,0,0,0,0,0,0,0,0,0,0,0,0,0,0,0,0,0,0,0,0,0],"sum_hessian":[1.2353144E2,8.152137E1,4.2010067E1,8.027404E1,1.2473326E0,4.020742E0,3.7989326E1,5.7938408E1,2.233563E1,7.3926363E0,3.059669E1,6.9213734E0,5.1017036E1,1.5974309E1,6.3613214E0,1.0659883E1,1.9936808E1,1.6542045E0,5.2671685E0,1.6158383E0,1.4358471E1,1.9102819E0,4.4510393E0,1.6630293E1,3.3065135E0,2.8643458E0,1.3765947E1,1.8227656E0,1.483748E0],"tree_param":{"num_deleted":"0","num_feature":"7","num_nodes":"29","size_leaf_vector":"1"}},{"base_weights":[-1.4856467E-1,-3.9385957E-1,4.1834402E-1,-4.593779E-1,3.2683185E-1,-5.8213096E-2,1.3917586E-1,-7.99356E-3,-4.694245E-1,4.2558077E-1,-8.886638E-3,6.101057E-2,-1.030973E-1,-1.8373951E-1,-1.4406888E-1,4.520081E-2,1.61997E-1,4.4659354E-2,-1.1115903E-1],"categories":[],"categories_nodes":[],"categories_segments":[],"categories_sizes":[],"default_left":[0,0,0,0,0,0,0,0,0,0,0,0,0,0,0,0,0,0,0],"id":14,"left_children":[1,3,5,7,9,11,-1,-1,13,15,-1,-1,-1,17,-1,-1,-1,-1,-1],"loss_changes":[1.4176041E1,3.4952126E0,6.9845486E-1,2.7161884E-1,2.4097729E-1,3.3771792E-1,0E0,0E0,1.0873985E-1,8.047938E-2,0E0,0E0,0E0,3.0026478E-1,0E0,0E0,0E0,0E0,0E0],"parents":[2147483647,0,0,1,1,2,2,3,3,4,4,5,5,8,8,9,9,13,13],"right_children":[2,4,6,8,10,12,-1,-1,14,16,-1,-1,-1,18,-1,-1,-1,-1,-1],"split_conditions":[1.1119624E0,2.0584452E0,-2.3514755E0,-1.2502335E0,9.893614E-1,-1.5900854E0,1.3917586E-1,-7.99356E-3,-1.4638506E0,-1.3376158E0,-8.886638E-3,6.101057E-2,-1.030973E-1,-1.2951705E0,-1.4406888E-1,4.520081E-2,1.61997E-1,4.4659354E-2,-1.1115903E-1],"split_indices":[4,5,6,6,0,1,0,0,1,1,0,0,0,2,0,0,0,0,0],"split_type":[0,0,0,0,0,0,0,0,0,0,0,0,0,0,0,0,0,0,0],"sum_hessian":[9.975717E1,6.9842415E1,2.9914762E1,6.435451E1,5.4879065E0,2.5869734E0,2.732779E1,1.543057E0,6.281145E1,4.1455345E0,1.342372E0,1.4999527E0,1.0870206E0,2.9452229E0,5.9866226E1,1.8991187E0,2.246416E0,1.1322141E0,1.8130087E0],"tree_param":{"num_deleted":"0","num_feature":"7","num_nodes":"19","size_leaf_vector":"1"}},{"base_weights":[-1.368481E-1,9.689937E-2,-4.0017858E-1,-3.8453048E-1,3.0863702E-1,-1.4094101E-1,-3.3068827E-1,-1.5666442E-1,-1.2769718E-1,3.572237E-1,-1.1943441E-1,-1.258468E-1,-1.3570721E-1,-9.675192E-2,1.9136375E-2,7.152262E-2,1.2941314E-1,1.8193679E-2,-2.1449168E-1,-1.0668575E-1,2.133995E-1,-1.1837914E-1,-1.2228466E-2,2.3956923E-2,-9.574642E-2,3.3492642E-3,8.725305E-2],"categories":[],"categories_nodes":[],"categories_segments":[],"categories_sizes":[],"default_left":[0,0,0,0,0,0,0,0,0,0,0,0,0,0,0,0,0,0,0,0,0,0,0,0,0,0,0],"id":15,"left_children":[1,3,5,7,9,-1,11,13,-1,15,-1,17,-1,-1,-1,19,-1,-1,21,23,25,-1,-1,-1,-1,-1,-1],"loss_changes":[5.37855E0,4.885454E0,4.2957306E-2,7.134938E-2,1.2765155E0,0E0,5.3851485E-1,1.6075906E-1,0E0,6.351185E-1,0E0,1.8308824E-1,0E0,0E0,0E0,2.168539E-1,0E0,0E0,2.0901144E-1,1.8676831E-1,6.890985E-2,0E0,0E0,0E0,0E0,0E0,0E0],"parents":[2147483647,0,0,1,1,2,2,3,3,4,4,6,6,7,7,9,9,11,11,15,15,18,18,19,19,20,20],"right_children":[2,4,6,8,10,-1,12,14,-1,16,-1,18,-1,-1,-1,20,-1,-1,22,24,26,-1,-1,-1,-1,-1,-1],"split_conditions":[-1.4899155E-1,1.2480826E-1,-3.277378E-1,-1.2951705E0,3.0129346E-1,-1.4094101E-1,-2.0764646E-1,-1.0851463E0,-1.2769718E-1,1.772012E-1,-1.1943441E-1,7.004095E-1,-1.3570721E-1,-9.675192E-2,1.9136375E-2,9.893614E-1,1.2941314E-1,1.8193679E-2,1.772012E-1,-1.3376158E0,-1.5900854E0,-1.1837914E-1,-1.2228466E-2,2.3956923E-2,-9.574642E-2,3.3492642E-3,8.725305E-2],"split_indices":[6,4,1,2,2,0,3,1,0,1,0,2,0,0,0,0,0,0,1,1,1,0,0,0,0,0,0],"split_type":[0,0,0,0,0,0,0,0,0,0,0,0,0,0,0,0,0,0,0,0,0,0,0,0,0,0,0],"sum_hessian":[8.575107E1,4.576204E1,3.998903E1,1.3729371E1,3.2032665E1,1.709762E1,2.2891407E1,2.8344116E0,1.0894959E1,3.0434929E1,1.5977381E0,9.288193E0,1.3603214E1,1.3533684E0,1.4810431E0,6.676393E0,2.3758535E1,3.0942733E0,6.193919E0,3.0692353E0,3.6071577E0,2.4169517E0,3.7769678E0,1.9666865E0,1.1025488E0,1.3156528E0,2.2915049E0],"tree_param":{"num_deleted":"0","num_feature":"7","num_nodes":"27","size_leaf_vector":"1"}},{"base_weights":[2.1489409E-1,4.3447444E-1,-2.0687559E-1,4.5092085E-1,-9.489591E-2,1.515306E-1,-2.9441348E-1,4.930055E-1,3.2901603E-1,-1.4700222E-1,-2.331417E-1,2.8883633E-1,1.5476224E-1,3.9177454E-1,1.4818957E-1,-3.4477857E-1,-1.8681999E-1,1.451398E-2,3.486503E-1,-2.744516E-4,1.3064624E-1,1.1919995E-1,-1.2525356E-3,-5.293366E-2,-1.2803884E-1,-1.4615698E-1,-1.1656146E-1,1.3213782E-1,4.689479E-2,-7.1904555E-2,1.463961E-2],"categories":[],"categories_nodes":[],"categories_segments":[],"categories_sizes":[],"default_left":[0,0,0,0,0,0,0,0,0,0,0,0,0,0,0,0,0,0,0,0,0,0,0,0,0,0,0,0,0,0,0],"id":16,"left_children":[1,3,5,7,-1,-1,9,11,13,-1,15,17,-1,19,21,23,25,-1,27,-1,-1,-1,-1,-1,-1,29,-1,-1,-1,-1,-1],"loss_changes":[1.0069595E1,1.0216465E0,2.4903064E0,1.9729042E-1,0E0,0E0,2.9429364E-1,8.484459E-2,1.8013811E-1,0E0,7.968485E-2,8.836979E-2,0E0,2.574215E-1,2.6799726E-1,2.1182895E-2,1.2265235E-1,0E0,3.177011E-2,0E0,0E0,0E0,0E0,0E0,0E0,3.7288237E-1,0E0,0E0,0E0,0E0,0E0],"parents":[2147483647,0,0,1,1,2,2,3,3,6,6,7,7,8,8,10,10,11,11,13,13,14,14,15,15,16,16,18,18,25,25],"right_children":[2,4,6,8,-1,-1,10,12,14,-1,16,18,-1,20,22,24,26,-1,28,-1,-1,-1,-1,-1,-1,30,-1,-1,-1,-1,-1],"split_conditions":[4.9199116E-1,4.068523E-1,1.2480826E-1,1.2480826E-1,-9.489591E-2,1.515306E-1,3.0343595E-1,-1.2951705E0,1.772012E-1,-1.4700222E-1,-1.1621319E0,-1.4638506E0,1.5476224E-1,3.521612E-2,8.334481E-1,-1.2951705E0,1.3656029E0,1.451398E-2,-1.0851463E0,-2.744516E-4,1.3064624E-1,1.1919995E-1,-1.2525356E-3,-5.293366E-2,-1.2803884E-1,-1.4899155E-1,-1.1656146E-1,1.3213782E-1,4.689479E-2,-7.1904555E-2,1.463961E-2],"split_indices":[3,4,4,4,0,0,1,2,1,0,2,1,0,2,2,2,2,0,1,0,0,0,0,0,0,6,0,0,0,0,0],"split_type":[0,0,0,0,0,0,0,0,0,0,0,0,0,0,0,0,0,0,0,0,0,0,0,0,0,0,0,0,0,0,0],"sum_hessian":[1.0675793E2,7.018719E1,3.6570744E1,6.907351E1,1.113672E0,3.4818113E0,3.3088932E1,4.9084213E1,1.9989302E1,6.223808E0,2.6865126E1,6.316973E0,4.276724E1,1.3973138E1,6.0161633E0,5.988797E0,2.087633E1,1.6186656E0,4.698308E0,1.4977124E0,1.2475425E1,1.6728983E0,4.343265E0,2.9943986E0,2.9943986E0,1.8809258E1,2.0670705E0,2.3070078E0,2.3913002E0,1.2556291E1,6.2529674E0],"tree_param":{"num_deleted":"0","num_feature":"7","num_nodes":"31","size_leaf_vector":"1"}},{"base_weights":[-1.3106458E-1,-3.5285214E-1,3.4908256E-1,-4.21123E-1,2.9257157E-1,-1.8743914E-2,1.1762672E-1,-6.598855E-3,-4.321816E-1,3.839221E-1,-8.659815E-3,-1.5012187E-1,-4.4427797E-1,4.4640206E-2,1.4448321E-1,4.002972E-2,-1.0070531E-1,-1.4871222E-1,-3.719401E-1,-4.916823E-2,-1.1777576E-1],"categories":[],"categories_nodes":[],"categories_segments":[],"categories_sizes":[],"default_left":[0,0,0,0,0,0,0,0,0,0,0,0,0,0,0,0,0,0,0,0,0],"id":17,"left_children":[1,3,5,7,9,-1,-1,-1,11,13,-1,15,17,-1,-1,-1,-1,-1,19,-1,-1],"loss_changes":[9.292157E0,2.740302E0,5.149205E-1,2.2937775E-1,1.952368E-1,0E0,0E0,0E0,1.1280155E-1,4.2113066E-2,0E0,2.3809342E-1,1.4009476E-3,0E0,0E0,0E0,0E0,0E0,4.1986704E-2,0E0,0E0],"parents":[2147483647,0,0,1,1,2,2,3,3,4,4,8,8,9,9,11,11,12,12,18,18],"right_children":[2,4,6,8,10,-1,-1,-1,12,14,-1,16,18,-1,-1,-1,-1,-1,20,-1,-1],"split_conditions":[1.1119624E0,2.0584452E0,-2.3514755E0,-1.2502335E0,9.893614E-1,-1.8743914E-2,1.1762672E-1,-6.598855E-3,-1.4638506E0,-1.3376158E0,-8.659815E-3,-1.2951705E0,2.9150522E-1,4.4640206E-2,1.4448321E-1,4.002972E-2,-1.0070531E-1,-1.4871222E-1,3.521612E-2,-4.916823E-2,-1.1777576E-1],"split_indices":[4,5,6,6,0,0,0,0,1,1,0,2,6,0,0,0,0,0,2,0,0],"split_type":[0,0,0,0,0,0,0,0,0,0,0,0,0,0,0,0,0,0,0,0,0],"sum_hessian":[8.510128E1,5.839351E1,2.6707767E1,5.3121964E1,5.2715473E0,2.483966E0,2.4223803E1,1.5127542E0,5.1609207E1,3.9535758E0,1.3179716E0,2.673758E0,4.8935448E1,1.9011099E0,2.052466E0,1.168748E0,1.5050101E0,2.5180456E1,2.3754993E1,2.951479E0,2.0803514E1],"tree_param":{"num_deleted":"0","num_feature":"7","num_nodes":"21","size_leaf_vector":"1"}},{"base_weights":[-1.2420954E-1,7.937435E-2,-3.6156377E-1,-3.2377037E-1,2.664271E-1,-4.395444E-1,-2.887061E-1,-1.2947653E-1,-3.5883653E-1,3.1347522E-1,-1.1159065E-1,-2.6275474E-1,-1.4749937E-1,-9.0693936E-2,-1.261545E-1,-8.827771E-2,1.989305E-2,-3.0014014E-2,-3.8275847E-1,-2.3763219E-2,3.4295428E-1,1.838539E-2,-1.2156052E-1,2.9272055E-2,-1.8618137E-1,-1.3663602E-1,-1.9849062E-1,2.2020936E-2,3.6242837E-1,-1.095053E-1,-9.6301E-3,-1.7094057E-2,-9.219962E-2,1.4808431E-1,9.3211114E-2],"categories":[],"categories_nodes":[],"categories_segments":[],"categories_sizes":[],"default_left":[0,0,0,0,0,0,0,0,0,0,0,0,0,0,0,0,0,0,0,0,0,0,0,0,0,0,0,0,0,0,0,0,0,0,0],"id":18,"left_children":[1,3,5,7,9,11,13,15,17,19,-1,21,-1,23,-1,-1,-1,-1,25,-1,27,-1,-1,-1,29,-1,31,-1,33,-1,-1,-1,-1,-1,-1],"loss_changes":[3.6431084E0,3.1843727E0,7.033491E-2,4.5327306E-2,9.7596383E-1,7.6835155E-3,5.0633335E-1,1.364385E-1,2.8863668E-2,3.41923E-1,0E0,2.8008702E-1,0E0,1.909609E-1,0E0,0E0,0E0,0E0,3.7873387E-2,0E0,1.0714507E-1,0E0,0E0,0E0,1.7348786E-1,0E0,5.1514104E-2,0E0,6.1514378E-3,0E0,0E0,0E0,0E0,0E0,0E0],"parents":[2147483647,0,0,1,1,2,2,3,3,4,4,5,5,6,6,7,7,8,8,9,9,11,11,13,13,18,18,20,20,24,24,26,26,28,28],"right_children":[2,4,6,8,10,12,14,16,18,20,-1,22,-1,24,-1,-1,-1,-1,26,-1,28,-1,-1,-1,30,-1,32,-1,34,-1,-1,-1,-1,-1,-1],"split_conditions":[-1.4899155E-1,2.6583028E-1,-3.277378E-1,-1.2951705E0,3.0129346E-1,-1.708478E0,-2.0764646E-1,-1.0851463E0,-1.2502335E0,-1.4282092E0,-1.1159065E-1,-5.8020735E-1,-1.4749937E-1,7.004095E-1,-1.261545E-1,-8.827771E-2,1.989305E-2,-3.0014014E-2,1.1870792E0,-2.3763219E-2,4.9199116E-1,1.838539E-2,-1.2156052E-1,2.9272055E-2,1.772012E-1,-1.3663602E-1,1.7647188E0,2.2020936E-2,-8.9605457E-1,-1.095053E-1,-9.6301E-3,-1.7094057E-2,-9.219962E-2,1.4808431E-1,9.3211114E-2],"split_indices":[6,4,1,2,2,4,3,1,6,2,0,1,0,2,0,0,0,0,1,0,3,0,0,0,1,0,2,0,2,0,0,0,0,0,0],"split_type":[0,0,0,0,0,0,0,0,0,0,0,0,0,0,0,0,0,0,0,0,0,0,0,0,0,0,0,0,0,0,0,0,0,0,0],"sum_hessian":[7.3799194E1,4.0083927E1,3.3715267E1,1.2472252E1,2.7611675E1,1.3854105E1,1.9861164E1,2.6242435E0,9.848008E0,2.6190472E1,1.421205E0,4.529962E0,9.324142E0,8.611885E0,1.1249279E1,1.1518445E0,1.472399E0,1.2717979E0,8.57621E0,1.7110343E0,2.4479437E1,1.5572628E0,2.9726992E0,2.8906662E0,5.7212186E0,5.094646E0,3.481564E0,1.9707336E0,2.2508703E1,2.0142977E0,3.7069206E0,2.1759777E0,1.3055866E0,3.9492817E0,1.8559422E1],"tree_param":{"num_deleted":"0","num_feature":"7","num_nodes":"35","size_leaf_vector":"1"}},{"base_weights":[1.8990915E-1,3.8114053E-1,-1.7012045E-1,3.9751098E-1,-8.910911E-2,1.3848393E-1,-2.476166E-1,4.4189838E-1,2.7781376E-1,-1.4010327E-1,-1.827819E-1,2.4879424E-1,4.6583363E-1,-8.799414E-3,3.0436283E-1,-3.0713898E-1,-1.3436769E-1,1.11740995E-2,3.0609843E-1,3.1640565E-1,1.4976136E-1,1.15787804E-1,1.15093E-1,-4.0945865E-2,-1.1946761E-1,-9.225428E-2,-1.07728295E-1,1.1978123E-1,3.8146634E-2,-2.2406174E-2,1.5036362E-1,1.1025473E-1,-8.280929E-3,-5.5818856E-2,2.5278147E-2],"categories":[],"categories_nodes":[],"categories_segments":[],"categories_sizes":[],"default_left":[0,0,0,0,0,0,0,0,0,0,0,0,0,0,0,0,0,0,0,0,0,0,0,0,0,0,0,0,0,0,0,0,0,0,0],"id":19,"left_children":[1,3,5,7,-1,-1,9,11,13,-1,15,17,19,-1,21,23,25,-1,27,29,-1,-1,31,-1,-1,33,-1,-1,-1,-1,-1,-1,-1,-1,-1],"loss_changes":[6.5069823E0,7.99943E-1,1.7372432E0,1.9813538E-1,0E0,0E0,3.4391534E-1,7.992363E-2,1.6412175E-1,0E0,1.0887343E-1,7.1257085E-2,2.4298191E-2,0E0,2.2747564E-1,4.2183757E-2,1.5357372E-1,0E0,3.6372572E-2,7.170489E-1,0E0,0E0,2.525024E-1,0E0,0E0,3.1306732E-1,0E0,0E0,0E0,0E0,0E0,0E0,0E0,0E0,0E0],"parents":[2147483647,0,0,1,1,2,2,3,3,6,6,7,7,8,8,10,10,11,11,12,12,14,14,15,15,16,16,18,18,19,19,22,22,25,25],"right_children":[2,4,6,8,-1,-1,10,12,14,-1,16,18,20,-1,22,24,26,-1,28,30,-1,-1,32,-1,-1,34,-1,-1,-1,-1,-1,-1,-1,-1,-1],"split_conditions":[4.9199116E-1,4.068523E-1,1.2480826E-1,1.2480826E-1,-8.910911E-2,1.3848393E-1,3.0343595E-1,-1.2951705E0,3.521612E-2,-1.4010327E-1,-1.1621319E0,-1.4638506E0,-1.708478E0,-8.799414E-3,1.772012E-1,-1.2951705E0,1.3656029E0,1.11740995E-2,-1.0851463E0,-5.8020735E-1,1.4976136E-1,1.15787804E-1,8.334481E-1,-4.0945865E-2,-1.1946761E-1,-1.4899155E-1,-1.07728295E-1,1.1978123E-1,3.8146634E-2,-2.2406174E-2,1.5036362E-1,1.1025473E-1,-8.280929E-3,-5.5818856E-2,2.5278147E-2],"split_indices":[3,4,4,4,0,0,1,2,2,0,2,1,4,0,1,2,2,0,1,1,0,0,2,0,0,6,0,0,0,0,0,0,0,0,0],"split_type":[0,0,0,0,0,0,0,0,0,0,0,0,0,0,0,0,0,0,0,0,0,0,0,0,0,0,0,0,0,0,0,0,0,0,0],"sum_hessian":[9.25692E1,6.0418823E1,3.2150375E1,5.9398834E1,1.0199869E0,2.9714117E0,2.9178963E1,4.136691E1,1.8031925E1,5.240962E0,2.3938002E1,5.818562E0,3.5548347E1,1.4263009E0,1.6605623E1,5.2104416E0,1.872756E1,1.5918797E0,4.226682E0,8.402987E0,2.7145363E1,1.0877151E1,5.728473E0,2.6827197E0,2.5277216E0,1.6959831E1,1.7677283E0,1.9697802E0,2.2569022E0,2.8877356E0,5.5152507E0,1.4998302E0,4.228643E0,1.103905E1,5.9207816E0],"tree_param":{"num_deleted":"0","num_feature":"7","num_nodes":"35","size_leaf_vector":"1"}},{"base_weights":[-1.14110194E-1,-3.1510562E-1,2.9427037E-1,-3.8401812E-1,2.541696E-1,-1.6618017E-2,1.0029806E-1,2.4172067E-4,-3.967871E-1,8.7874874E-2,1.3542356E-1,-1.4112258E-1,-3.127556E-1,3.8859665E-2,-2.0953133E-3,3.5881743E-2,-1.0245235E-1],"categories":[],"categories_nodes":[],"categories_segments":[],"categories_sizes":[],"default_left":[0,0,0,0,0,0,0,0,0,0,0,0,0,0,0,0,0],"id":20,"left_children":[1,3,5,7,9,-1,-1,-1,11,13,-1,-1,15,-1,-1,-1,-1],"loss_changes":[6.191815E0,2.0700517E0,3.6903358E-1,2.2265911E-1,1.5814829E-1,0E0,0E0,0E0,1.2382603E-1,1.8741686E-2,0E0,0E0,3.321898E-1,0E0,0E0,0E0,0E0],"parents":[2147483647,0,0,1,1,2,2,3,3,4,4,8,8,9,9,12,12],"right_children":[2,4,6,8,10,-1,-1,-1,12,14,-1,-1,16,-1,-1,-1,-1],"split_conditions":[1.1119624E0,2.0584452E0,-2.3514755E0,-1.2502335E0,2.6423347E0,-1.6618017E-2,1.0029806E-1,2.4172067E-4,2.9150522E-1,5.4787433E-1,1.3542356E-1,-1.4112258E-1,-1.2951705E0,3.8859665E-2,-2.0953133E-3,3.5881743E-2,-1.0245235E-1],"split_indices":[4,5,6,6,5,0,0,0,6,4,0,0,2,0,0,0,0],"split_type":[0,0,0,0,0,0,0,0,0,0,0,0,0,0,0,0,0],"sum_hessian":[7.330425E1,4.9278786E1,2.402547E1,4.424787E1,5.030914E0,2.4300478E0,2.1595423E1,1.4511395E0,4.279673E1,3.5138812E0,1.5170326E0,2.0360514E1,2.2436218E1,2.1876547E0,1.3262265E0,1.2019527E0,2.1234266E1],"tree_param":{"num_deleted":"0","num_feature":"7","num_nodes":"17","size_leaf_vector":"1"}},{"base_weights":[-1.1364974E-1,6.322683E-2,-3.258415E-1,-2.859254E-1,2.1963052E-1,-4.1312143E-1,-2.4894583E-1,-1.8893857E-1,-1.2314919E-1,2.619239E-1,-1.0208998E-1,-2.3010571E-1,-1.4168365E-1,-6.0882024E-2,-3.8956994E-1,-2.7343342E-1,5.9951108E-2,5.5890795E-2,3.165671E-1,1.36319725E-2,-1.1257269E-1,3.8266353E-2,-1.6227002E-1,-2.179942E-1,-1.3655892E-1,-3.1876244E-2,-3.3518767E-1,-9.6202806E-2,2.1293364E-1,2.555349E-1,1.5139146E-1,-1.0130798E-1,-7.82253E-3,-1.05626486E-1,-3.0063998E-3,-2.8528571E-2,-1.1703015E-1,-3.913045E-3,-3.9874878E-2,-2.1387374E-3,1.0712008E-1,1.3198444E-1,5.4622147E-2],"categories":[],"categories_nodes":[],"categories_segments":[],"categories_sizes":[],"default_left":[0,0,0,0,0,0,0,0,0,0,0,0,0,0,0,0,0,0,0,0,0,0,0,0,0,0,0,0,0,0,0,0,0,0,0,0,0,0,0,0,0,0,0],"id":21,"left_children":[1,3,5,7,9,11,13,15,-1,17,-1,19,-1,21,23,25,-1,27,29,-1,-1,-1,31,33,-1,-1,35,37,39,41,-1,-1,-1,-1,-1,-1,-1,-1,-1,-1,-1,-1,-1],"loss_changes":[2.4829347E0,2.0624776E0,9.842014E-2,6.4560235E-2,7.01421E-1,2.697897E-2,4.644519E-1,3.3276471E-1,0E0,2.59313E-1,0E0,2.1744263E-1,0E0,1.9422296E-1,1.7606258E-2,4.0547848E-2,0E0,1.7268239E-1,9.1805935E-2,0E0,0E0,0E0,1.427968E-1,1.3004993E-1,0E0,0E0,2.7810454E-2,1.0252126E-2,1.1185378E-1,1.4405191E-1,0E0,0E0,0E0,0E0,0E0,0E0,0E0,0E0,0E0,0E0,0E0,0E0,0E0],"parents":[2147483647,0,0,1,1,2,2,3,3,4,4,5,5,6,6,7,7,9,9,11,11,13,13,14,14,15,15,17,17,18,18,22,22,23,23,26,26,27,27,28,28,29,29],"right_children":[2,4,6,8,10,12,14,16,-1,18,-1,20,-1,22,24,26,-1,28,30,-1,-1,-1,32,34,-1,-1,36,38,40,42,-1,-1,-1,-1,-1,-1,-1,-1,-1,-1,-1,-1,-1],"split_conditions":[-1.4899155E-1,2.6583028E-1,-3.277378E-1,1.6316801E0,3.0129346E-1,-1.708478E0,-2.0764646E-1,1.682548E-1,-1.2314919E-1,1.772012E-1,-1.0208998E-1,-5.8020735E-1,-1.4168365E-1,7.004095E-1,-1.1621319E0,-1.2951705E0,5.9951108E-2,9.893614E-1,-4.9693856E-1,1.36319725E-2,-1.1257269E-1,3.8266353E-2,1.772012E-1,-1.2951705E0,-1.3655892E-1,-3.1876244E-2,-1.2502335E0,-7.630159E-1,-1.5900854E0,-8.9605457E-1,1.5139146E-1,-1.0130798E-1,-7.82253E-3,-1.05626486E-1,-3.0063998E-3,-2.8528571E-2,-1.1703015E-1,-3.913045E-3,-3.9874878E-2,-2.1387374E-3,1.0712008E-1,1.3198444E-1,5.4622147E-2],"split_indices":[6,4,1,2,2,4,3,2,0,1,0,1,0,2,2,2,0,0,2,0,0,0,1,2,0,0,6,2,1,2,0,0,0,0,0,0,0,0,0,0,0,0,0],"split_type":[0,0,0,0,0,0,0,0,0,0,0,0,0,0,0,0,0,0,0,0,0,0,0,0,0,0,0,0,0,0,0,0,0,0,0,0,0,0,0,0,0,0,0],"sum_hessian":[6.460667E1,3.5618336E1,2.898833E1,1.0763038E1,2.4855297E1,1.15294285E1,1.7458902E1,7.4665637E0,3.2964742E0,2.3604588E1,1.250711E0,4.0108256E0,7.5186024E0,8.082587E0,9.376314E0,6.3772416E0,1.0893221E0,5.372042E0,1.8232544E1,1.6207347E0,2.3900912E0,2.7372108E0,5.3453765E0,3.789825E0,5.5864897E0,2.4541194E0,3.923122E0,2.9258306E0,2.4462118E0,1.5546243E1,2.686302E0,1.6896154E0,3.655761E0,1.8828633E0,1.9069617E0,1.2387497E0,2.6843722E0,1.3111756E0,1.6146549E0,1.3442888E0,1.1019229E0,3.007497E0,1.2538745E1],"tree_param":{"num_deleted":"0","num_feature":"7","num_nodes":"43","size_leaf_vector":"1"}},{"base_weights":[1.6800873E-1,4.1073665E-1,-4.679436E-2,2.1432406E-1,4.3614438E-1,2.3213257E-1,-2.1767934E-1,8.334716E-3,2.6921368E-1,2.7196708E-1,1.418168E-1,-1.9342078E-2,2.608937E-1,-1.3989508E-1,-1.3789505E-1,1.09160796E-1,3.0964566E-2,-8.233884E-2,1.404811E-1,1.02662764E-1,8.880962E-2,-2.8978083E-2,-1.913979E-1,9.1071315E-2,-1.007377E-1,1.0267151E-1,-1.3234214E-2,-1.0373295E-1,9.954955E-2,-1.1663761E-1,-1.2635572E-1,-2.16621E-2,1.21784456E-1,-8.165131E-2,-3.5214957E-3],"categories":[],"categories_nodes":[],"categories_segments":[],"categories_sizes":[],"default_left":[0,0,0,0,0,0,0,0,0,0,0,0,0,0,0,0,0,0,0,0,0,0,0,0,0,0,0,0,0,0,0,0,0,0,0],"id":22,"left_children":[1,3,5,7,9,11,13,-1,15,17,-1,-1,19,-1,21,-1,-1,23,-1,-1,25,27,29,-1,-1,-1,-1,-1,31,-1,33,-1,-1,-1,-1],"loss_changes":[4.3011656E0,9.944868E-2,2.1700232E0,5.7993025E-2,7.120037E-2,1.6505986E-1,4.929273E-1,0E0,3.8264304E-2,6.238777E-1,0E0,0E0,1.9404638E-1,0E0,1.2665224E-1,0E0,0E0,4.785854E-1,0E0,0E0,2.3397386E-1,3.8668278E-1,1.4390045E-1,0E0,0E0,0E0,0E0,0E0,3.9405844E-1,0E0,2.1056052E-1,0E0,0E0,0E0,0E0],"parents":[2147483647,0,0,1,1,2,2,3,3,4,4,5,5,6,6,8,8,9,9,12,12,14,14,17,17,20,20,21,21,22,22,28,28,30,30],"right_children":[2,4,6,8,10,12,14,-1,16,18,-1,-1,20,-1,22,-1,-1,24,-1,-1,26,28,30,-1,-1,-1,-1,-1,32,-1,34,-1,-1,-1,-1],"split_conditions":[1.2480826E-1,-1.2951705E0,-2.0764646E-1,-1.4638506E0,-1.708478E0,3.521612E-2,3.0343595E-1,8.334716E-3,-1.0851463E0,-5.8020735E-1,1.418168E-1,-1.9342078E-2,1.772012E-1,-1.3989508E-1,5.5590546E-1,1.09160796E-1,3.0964566E-2,3.521612E-2,1.404811E-1,1.02662764E-1,8.334481E-1,-8.9605457E-1,-1.4899155E-1,9.1071315E-2,-1.007377E-1,1.0267151E-1,-1.3234214E-2,-1.0373295E-1,9.893614E-1,-1.1663761E-1,-1.1621319E0,-2.16621E-2,1.21784456E-1,-8.165131E-2,-3.5214957E-3],"split_indices":[4,2,3,1,4,2,1,0,1,1,0,0,1,0,1,0,0,2,0,0,2,2,6,0,0,0,0,0,0,0,2,0,0,0,0],"split_type":[0,0,0,0,0,0,0,0,0,0,0,0,0,0,0,0,0,0,0,0,0,0,0,0,0,0,0,0,0,0,0,0,0,0,0],"sum_hessian":[8.1126045E1,3.765907E1,4.3466976E1,5.394292E0,3.2264774E1,1.637708E1,2.7089895E1,1.5688213E0,3.8254704E0,7.41566E0,2.4849115E1,1.3379065E0,1.5039174E1,5.404072E0,2.1685823E1,1.6771317E0,2.1483388E0,2.8508103E0,4.5648494E0,9.541759E0,5.4974155E0,7.6513715E0,1.4034452E1,1.0517184E0,1.799092E0,1.3496017E0,4.147814E0,1.7204559E0,5.930916E0,2.2446654E0,1.1789787E1,4.2902727E0,1.6406431E0,4.5837607E0,7.2060266E0],"tree_param":{"num_deleted":"0","num_feature":"7","num_nodes":"35","size_leaf_vector":"1"}},{"base_weights":[-9.776309E-2,-2.7713782E-1,2.464952E-1,-3.476767E-1,2.2960159E-1,-1.5634032E-2,2.8380176E-1,-2.841482E-1,-1.4507371E-1,3.1556907E-1,-1.4349043E-2,2.4020223E-1,1.2798312E-1,1.6415289E-3,-2.9955235E-1,3.680324E-2,1.224781E-1,2.721947E-1,1.0196664E-1,-3.3597937E-1,-1.1076968E-1,2.912593E-1,1.2367686E-1,1.10546965E-2,3.750973E-2,-4.9868517E-2,-1.15018465E-1,1.450198E-2,-5.497901E-2,5.9974454E-2,1.3161473E-1,9.572383E-2,-3.655519E-2],"categories":[],"categories_nodes":[],"categories_segments":[],"categories_sizes":[],"default_left":[0,0,0,0,0,0,0,0,0,0,0,0,0,0,0,0,0,0,0,0,0,0,0,0,0,0,0,0,0,0,0,0,0],"id":23,"left_children":[1,3,5,7,9,-1,11,13,-1,15,-1,17,-1,-1,19,-1,-1,21,23,25,27,29,31,-1,-1,-1,-1,-1,-1,-1,-1,-1,-1],"loss_changes":[4.0740023E0,1.6210661E0,2.6823056E-1,1.9280243E-1,1.5511596E-1,0E0,2.4414062E-2,1.2873483E-1,0E0,3.2405466E-2,0E0,5.1412225E-2,0E0,0E0,1.4892077E-1,0E0,0E0,3.441453E-3,2.8474964E-3,1.1493254E-1,7.656524E-2,6.872827E-2,1.9833492E-1,0E0,0E0,0E0,0E0,0E0,0E0,0E0,0E0,0E0,0E0],"parents":[2147483647,0,0,1,1,2,2,3,3,4,4,6,6,7,7,9,9,11,11,14,14,17,17,18,18,19,19,20,20,21,21,22,22],"right_children":[2,4,6,8,10,-1,12,14,-1,16,-1,18,-1,-1,20,-1,-1,22,24,26,28,30,32,-1,-1,-1,-1,-1,-1,-1,-1,-1,-1],"split_conditions":[1.1119624E0,2.0584452E0,-2.3514755E0,3.0343595E-1,9.893614E-1,-1.5634032E-2,1.3656029E0,-1.2502335E0,-1.4507371E-1,-1.3376158E0,-1.4349043E-2,1.9444877E0,1.2798312E-1,1.6415289E-3,1.772012E-1,3.680324E-2,1.224781E-1,1.2325641E0,1.2325641E0,-1.2113811E0,-6.299772E-1,9.346097E-1,1.5657835E0,1.10546965E-2,3.750973E-2,-4.9868517E-2,-1.15018465E-1,1.450198E-2,-5.497901E-2,5.9974454E-2,1.3161473E-1,9.572383E-2,-3.655519E-2],"split_indices":[4,5,6,1,0,0,2,6,0,1,0,1,0,0,1,0,0,2,2,1,2,1,1,0,0,0,0,0,0,0,0,0,0],"split_type":[0,0,0,0,0,0,0,0,0,0,0,0,0,0,0,0,0,0,0,0,0,0,0,0,0,0,0,0,0,0,0,0,0],"sum_hessian":[6.386817E1,4.2117794E1,2.1750376E1,3.724687E1,4.8709264E0,2.3715067E0,1.937887E1,2.748816E1,9.75871E0,3.6136904E0,1.257236E0,1.690098E1,2.4778895E0,1.420754E0,2.6067406E1,1.9270284E0,1.6866622E0,1.2937689E1,3.963291E0,2.119748E1,4.869926E0,1.0614099E1,2.3235898E0,1.7160957E0,2.2471952E0,5.6119747E0,1.5585505E1,1.6286151E0,3.2413108E0,8.008717E0,2.605382E0,1.1270568E0,1.1965331E0],"tree_param":{"num_deleted":"0","num_feature":"7","num_nodes":"33","size_leaf_vector":"1"}},{"base_weights":[-1.00476E-1,5.711872E-2,-2.9394993E-1,-2.468377E-1,1.8657213E-1,-3.8809514E-1,-2.1631008E-1,-1.5043807E-1,-1.1478521E-1,2.2571379E-1,-9.59923E-2,-2.0347783E-1,-1.361634E-1,-3.6078047E-2,-3.641165E-1,-2.4156268E-1,6.702198E-2,-2.3293292E-2,2.5340405E-1,8.261907E-3,-1.0389665E-1,4.496115E-2,-1.417947E-1,-1.9088195E-1,-1.3086519E-1,-2.4601888E-2,-3.0656818E-1,1.2750886E-1,2.0332186E-1,-9.381105E-2,-6.266804E-3,-9.95199E-2,2.8615573E-3,-2.6970647E-2,-1.08274065E-1,4.267148E-2,1.3169387E-1],"categories":[],"categories_nodes":[],"categories_segments":[],"categories_sizes":[],"default_left":[0,0,0,0,0,0,0,0,0,0,0,0,0,0,0,0,0,0,0,0,0,0,0,0,0,0,0,0,0,0,0,0,0,0,0,0,0],"id":24,"left_children":[1,3,5,7,9,11,13,15,-1,17,-1,19,-1,21,23,25,-1,-1,27,-1,-1,-1,29,31,-1,-1,33,-1,35,-1,-1,-1,-1,-1,-1,-1,-1],"loss_changes":[1.8058012E0,1.3513423E0,1.0976291E-1,7.776433E-2,5.447824E-1,3.7818074E-2,4.3395805E-1,3.1607655E-1,0E0,2.1044767E-1,0E0,1.6227505E-1,0E0,1.9172549E-1,3.0534744E-2,4.4006467E-2,0E0,0E0,9.447837E-2,0E0,0E0,0E0,1.18332006E-1,1.2894541E-1,0E0,0E0,1.9028276E-2,0E0,1.996718E-1,0E0,0E0,0E0,0E0,0E0,0E0,0E0,0E0],"parents":[2147483647,0,0,1,1,2,2,3,3,4,4,5,5,6,6,7,7,9,9,11,11,13,13,14,14,15,15,18,18,22,22,23,23,26,26,28,28],"right_children":[2,4,6,8,10,12,14,16,-1,18,-1,20,-1,22,24,26,-1,-1,28,-1,-1,-1,30,32,-1,-1,34,-1,36,-1,-1,-1,-1,-1,-1,-1,-1],"split_conditions":[-1.4899155E-1,2.6583028E-1,-3.277378E-1,1.6316801E0,3.0129346E-1,-1.708478E0,-2.0764646E-1,1.682548E-1,-1.1478521E-1,-1.4282092E0,-9.59923E-2,-5.8020735E-1,-1.361634E-1,7.004095E-1,-1.1621319E0,-1.2951705E0,6.702198E-2,-2.3293292E-2,-8.9605457E-1,8.261907E-3,-1.0389665E-1,4.496115E-2,1.772012E-1,-1.2951705E0,-1.3086519E-1,-2.4601888E-2,-1.2502335E0,1.2750886E-1,5.5590546E-1,-9.381105E-2,-6.266804E-3,-9.95199E-2,2.8615573E-3,-2.6970647E-2,-1.08274065E-1,4.267148E-2,1.3169387E-1],"split_indices":[6,4,1,2,2,4,3,2,0,2,0,1,0,2,2,2,0,0,2,0,0,0,1,2,0,0,6,0,1,0,0,0,0,0,0,0,0],"split_type":[0,0,0,0,0,0,0,0,0,0,0,0,0,0,0,0,0,0,0,0,0,0,0,0,0,0,0,0,0,0,0,0,0,0,0,0,0],"sum_hessian":[5.7674442E1,3.2172787E1,2.550166E1,9.338718E0,2.2834066E1,9.718477E0,1.5783181E1,6.694076E0,2.6446428E0,2.171084E1,1.123225E0,3.6284714E0,6.090006E0,7.6720877E0,8.1110935E0,5.666668E0,1.0274079E0,1.6650876E0,2.0045753E1,1.6947734E0,1.9336979E0,2.6294312E0,5.0426564E0,3.4556746E0,4.655419E0,2.29503E0,3.3716378E0,2.8370135E0,1.720874E1,1.4320279E0,3.6106286E0,1.6446596E0,1.811015E0,1.2083642E0,2.1632736E0,1.4939841E1,2.2688992E0],"tree_param":{"num_deleted":"0","num_feature":"7","num_nodes":"37","size_leaf_vector":"1"}},{"base_weights":[1.4528E-1,3.700009E-1,-4.0659808E-2,1.7815766E-1,3.9780274E-1,1.91627E-1,-1.8314733E-1,8.2030275E-4,2.3635483E-1,2.3035298E-1,1.3145556E-1,-2.9381948E-2,2.2291295E-1,-1.3451576E-1,-1.0380584E-1,1.0134543E-1,2.2618342E-2,-2.6280593E-2,1.3140227E-1,3.0040675E-1,7.327717E-2,9.286695E-4,-1.5807772E-1,1.977634E-1,1.2266665E-1,9.673833E-2,-1.4901373E-2,-9.4899245E-2,1.1439445E-1,-1.08969815E-1,-9.4766796E-2,9.07145E-2,-5.9079237E-2,-1.3894045E-2,1.1084189E-1,-7.188145E-2,3.0185508E-3],"categories":[],"categories_nodes":[],"categories_segments":[],"categories_sizes":[],"default_left":[0,0,0,0,0,0,0,0,0,0,0,0,0,0,0,0,0,0,0,0,0,0,0,0,0,0,0,0,0,0,0,0,0,0,0,0,0],"id":25,"left_children":[1,3,5,7,9,11,13,-1,15,17,-1,-1,19,-1,21,-1,-1,-1,-1,23,25,27,29,31,-1,-1,-1,-1,33,-1,35,-1,-1,-1,-1,-1,-1],"loss_changes":[3.0613031E0,1.0571623E-1,1.3853385E0,6.062776E-2,8.912134E-2,1.6677195E-1,4.9632597E-1,0E0,4.7941446E-2,5.381506E-1,0E0,0E0,1.4895749E-1,0E0,1.2041135E-1,0E0,0E0,0E0,0E0,2.3704827E-2,2.1065636E-1,3.3193803E-1,1.4666611E-1,3.387685E-1,0E0,0E0,0E0,0E0,2.9528677E-1,0E0,1.8471897E-1,0E0,0E0,0E0,0E0,0E0,0E0],"parents":[2147483647,0,0,1,1,2,2,3,3,4,4,5,5,6,6,8,8,9,9,12,12,14,14,19,19,20,20,21,21,22,22,23,23,28,28,30,30],"right_children":[2,4,6,8,10,12,14,-1,16,18,-1,-1,20,-1,22,-1,-1,-1,-1,24,26,28,30,32,-1,-1,-1,-1,34,-1,36,-1,-1,-1,-1,-1,-1],"split_conditions":[1.2480826E-1,-1.2951705E0,-2.0764646E-1,-1.4638506E0,-1.708478E0,3.521612E-2,3.0343595E-1,8.2030275E-4,-1.0851463E0,-5.8020735E-1,1.3145556E-1,-2.9381948E-2,1.772012E-1,-1.3451576E-1,5.5590546E-1,1.0134543E-1,2.2618342E-2,-2.6280593E-2,1.3140227E-1,7.004095E-1,8.334481E-1,-8.9605457E-1,-1.4899155E-1,-2.0150307E-1,1.2266665E-1,9.673833E-2,-1.4901373E-2,-9.4899245E-2,9.893614E-1,-1.08969815E-1,-1.1621319E0,9.07145E-2,-5.9079237E-2,-1.3894045E-2,1.1084189E-1,-7.188145E-2,3.0185508E-3],"split_indices":[4,2,3,1,4,2,1,0,1,1,0,0,1,0,1,0,0,0,0,2,2,2,6,1,0,0,0,0,0,0,2,0,0,0,0,0,0],"split_type":[0,0,0,0,0,0,0,0,0,0,0,0,0,0,0,0,0,0,0,0,0,0,0,0,0,0,0,0,0,0,0,0,0,0,0,0,0],"sum_hessian":[7.190393E1,3.2108604E1,3.979533E1,5.001877E0,2.7106728E1,1.4998888E1,2.479644E1,1.506831E0,3.495046E0,6.569585E0,2.0537142E1,1.2547833E0,1.3744104E1,4.638522E0,2.0157919E1,1.4697843E0,2.0252616E0,2.8238776E0,3.7457075E0,8.390976E0,5.3531284E0,7.215756E0,1.29421625E1,5.7620535E0,2.6289227E0,1.2324808E0,4.120648E0,1.4298589E0,5.785897E0,1.9349141E0,1.1007248E1,4.73964E0,1.022413E0,4.0516543E0,1.7342424E0,4.0818367E0,6.9254117E0],"tree_param":{"num_deleted":"0","num_feature":"7","num_nodes":"37","size_leaf_vector":"1"}},{"base_weights":[-8.143728E-2,-2.4342412E-1,2.1120566E-1,-3.1229386E-1,2.0018776E-1,-1.2877823E-2,2.446987E-1,-2.4456486E-1,-1.4018078E-1,6.291705E-2,1.1373087E-1,2.0049909E-1,1.19606756E-1,2.8928565E-3,-2.5992733E-1,3.0169254E-2,-4.3153106E-3,2.3120254E-1,7.6818444E-2,-2.9704803E-1,-8.7057084E-2,1.7987758E-1,1.0924256E-1,6.2075914E-3,3.0009894E-2,-3.6061976E-2,-1.0519289E-1,1.7755037E-2,-4.789224E-2,6.862695E-2,-3.804583E-2],"categories":[],"categories_nodes":[],"categories_segments":[],"categories_sizes":[],"default_left":[0,0,0,0,0,0,0,0,0,0,0,0,0,0,0,0,0,0,0,0,0,0,0,0,0,0,0,0,0,0,0],"id":26,"left_children":[1,3,5,7,9,-1,11,13,-1,15,-1,17,-1,-1,19,-1,-1,21,23,25,27,29,-1,-1,-1,-1,-1,-1,-1,-1,-1],"loss_changes":[2.7850006E0,1.210747E0,1.8994564E-1,2.3129773E-1,1.1515708E-1,0E0,4.7860146E-2,1.00173E-1,0E0,1.4256382E-2,0E0,4.527837E-2,0E0,0E0,1.257075E-1,0E0,0E0,2.1844506E-2,4.1830204E-3,1.3820922E-1,6.878263E-2,1.9708878E-1,0E0,0E0,0E0,0E0,0E0,0E0,0E0,0E0,0E0],"parents":[2147483647,0,0,1,1,2,2,3,3,4,4,6,6,7,7,9,9,11,11,14,14,17,17,18,18,19,19,20,20,21,21],"right_children":[2,4,6,8,10,-1,12,14,-1,16,-1,18,-1,-1,20,-1,-1,22,24,26,28,30,-1,-1,-1,-1,-1,-1,-1,-1,-1],"split_conditions":[1.1119624E0,2.0584452E0,-2.3514755E0,3.0343595E-1,2.6423347E0,-1.2877823E-2,1.3656029E0,-1.2502335E0,-1.4018078E-1,5.4787433E-1,1.1373087E-1,1.9444877E0,1.19606756E-1,2.8928565E-3,1.772012E-1,3.0169254E-2,-4.3153106E-3,1.8182529E0,1.2325641E0,-1.2113811E0,-6.299772E-1,1.5657835E0,1.0924256E-1,6.2075914E-3,3.0009894E-2,-3.6061976E-2,-1.0519289E-1,1.7755037E-2,-4.789224E-2,6.862695E-2,-3.804583E-2],"split_indices":[4,5,6,1,5,0,2,6,0,4,0,1,0,0,1,0,0,1,2,1,2,1,0,0,0,0,0,0,0,0,0],"split_type":[0,0,0,0,0,0,0,0,0,0,0,0,0,0,0,0,0,0,0,0,0,0,0,0,0,0,0,0,0,0,0],"sum_hessian":[5.6665394E1,3.6583496E1,2.0081898E1,3.1923471E1,4.660026E0,2.3056812E0,1.7776217E1,2.4008926E1,7.914544E0,3.4017377E0,1.2582883E0,1.5600466E1,2.1757514E0,1.3894575E0,2.2619469E1,2.0852497E0,1.316488E0,1.1801434E1,3.7990313E0,1.8029613E1,4.589856E0,1.0211917E1,1.5895175E0,1.6649555E0,2.1340759E0,4.9475565E0,1.3082056E1,1.5836866E0,3.0061698E0,9.027341E0,1.1845759E0],"tree_param":{"num_deleted":"0","num_feature":"7","num_nodes":"31","size_leaf_vector":"1"}},{"base_weights":[-8.928784E-2,5.035147E-2,-2.6438868E-1,-2.093968E-1,1.5587038E-1,-3.639298E-1,-1.874527E-1,-1.15289174E-1,-1.06592424E-1,1.9872467E-1,-4.990179E-2,-1.8031733E-1,-1.3080019E-1,-1.9943645E-2,-3.3877444E-1,-2.0917019E-1,6.520588E-2,5.1011246E-2,2.2960892E-1,4.3188315E-3,-9.550044E-2,4.439877E-2,-1.223612E-1,-1.6387136E-1,-1.2538457E-1,-1.8429883E-2,-2.7608317E-1,4.9639296E-2,-5.3134102E-2,1.7264934E-1,1.17480114E-1,-8.6455986E-2,-5.3144186E-3,-9.339459E-2,8.340469E-3,-1.9385306E-2,-1.0066474E-1,1.12076946E-1,3.163195E-2],"categories":[],"categories_nodes":[],"categories_segments":[],"categories_sizes":[],"default_left":[0,0,0,0,0,0,0,0,0,0,0,0,0,0,0,0,0,0,0,0,0,0,0,0,0,0,0,0,0,0,0,0,0,0,0,0,0,0,0],"id":27,"left_children":[1,3,5,7,9,11,13,15,-1,17,-1,19,-1,21,23,25,-1,27,29,-1,-1,-1,31,33,-1,-1,35,-1,-1,37,-1,-1,-1,-1,-1,-1,-1,-1,-1],"loss_changes":[1.3150582E0,8.67463E-1,1.13896966E-1,8.5718215E-2,3.4005117E-1,4.4514537E-2,3.855096E-1,2.6683772E-1,0E0,7.988721E-2,0E0,1.20894685E-1,0E0,1.6271564E-1,4.323387E-2,4.272908E-2,0E0,1.5352957E-1,8.298391E-2,0E0,0E0,0E0,9.501988E-2,1.2619448E-1,0E0,0E0,2.6978076E-2,0E0,0E0,1.4783925E-1,0E0,0E0,0E0,0E0,0E0,0E0,0E0,0E0,0E0],"parents":[2147483647,0,0,1,1,2,2,3,3,4,4,5,5,6,6,7,7,9,9,11,11,13,13,14,14,15,15,17,17,18,18,22,22,23,23,26,26,29,29],"right_children":[2,4,6,8,10,12,14,16,-1,18,-1,20,-1,22,24,26,-1,28,30,-1,-1,-1,32,34,-1,-1,36,-1,-1,38,-1,-1,-1,-1,-1,-1,-1,-1,-1],"split_conditions":[-1.4899155E-1,2.6583028E-1,-3.277378E-1,1.6316801E0,3.5181692E0,-1.708478E0,-2.0764646E-1,-5.8020735E-1,-1.06592424E-1,1.772012E-1,-4.990179E-2,-5.8020735E-1,-1.3080019E-1,7.004095E-1,-1.1621319E0,-1.2951705E0,6.520588E-2,-1.6907303E0,-4.9693856E-1,4.3188315E-3,-9.550044E-2,4.439877E-2,8.334481E-1,-1.2951705E0,-1.2538457E-1,-1.8429883E-2,-1.2502335E0,4.9639296E-2,-5.3134102E-2,-8.9605457E-1,1.17480114E-1,-8.6455986E-2,-5.3144186E-3,-9.339459E-2,8.340469E-3,-1.9385306E-2,-1.0066474E-1,1.12076946E-1,3.163195E-2],"split_indices":[6,4,1,2,5,4,3,1,0,1,0,1,0,2,2,2,0,6,2,0,0,0,2,2,0,0,6,0,0,2,0,0,0,0,0,0,0,0,0],"split_type":[0,0,0,0,0,0,0,0,0,0,0,0,0,0,0,0,0,0,0,0,0,0,0,0,0,0,0,0,0,0,0,0,0,0,0,0,0,0,0],"sum_hessian":[5.2239056E1,2.9458752E1,2.2780304E1,8.225698E0,2.1233053E1,8.3049345E0,1.4475369E1,6.0887814E0,2.1369166E0,1.9078794E1,2.154259E0,3.3280687E0,4.9768662E0,7.4073873E0,7.0679817E0,5.0380783E0,1.0507028E0,3.7577753E0,1.5321018E1,1.7520254E0,1.5760432E0,2.637505E0,4.769882E0,3.1590664E0,3.908915E0,2.1684525E0,2.869626E0,2.6852362E0,1.0725392E0,1.2863674E1,2.4573445E0,1.1668912E0,3.602991E0,1.4327366E0,1.7263299E0,1.0878346E0,1.7817913E0,2.0816002E0,1.0782074E1],"tree_param":{"num_deleted":"0","num_feature":"7","num_nodes":"39","size_leaf_vector":"1"}},{"base_weights":[1.2540603E-1,3.3115608E-1,-3.3537988E-2,1.4741519E-1,3.609168E-1,1.5841638E-1,-1.5190554E-1,-4.8626848E-3,2.0776062E-1,1.9205926E-1,4.0519926E-1,-3.7847057E-2,1.9213234E-1,-1.2943251E-1,-7.383321E-2,9.448978E-2,1.5797589E-2,-2.805769E-2,1.23116694E-1,1.3148923E-1,2.2267891E-1,2.656576E-1,6.0861338E-2,-4.193081E-2,-9.0963036E-2,1.0669364E-1,9.1317885E-2,1.6581829E-1,1.138409E-1,9.142231E-2,-1.5832977E-2,-2.0696488E-1,1.1973981E-2,-2.8146898E-2,8.551011E-2,8.095105E-2,-5.3934984E-2,-5.9762425E-3,-1.00716576E-1,-8.6353965E-2,1.689251E-2],"categories":[],"categories_nodes":[],"categories_segments":[],"categories_sizes":[],"default_left":[0,0,0,0,0,0,0,0,0,0,0,0,0,0,0,0,0,0,0,0,0,0,0,0,0,0,0,0,0,0,0,0,0,0,0,0,0,0,0,0,0],"id":28,"left_children":[1,3,5,7,9,11,13,-1,15,17,19,-1,21,-1,23,-1,-1,-1,-1,-1,25,27,29,31,-1,33,-1,35,-1,-1,-1,37,39,-1,-1,-1,-1,-1,-1,-1,-1],"loss_changes":[2.1544166E0,1.0349274E-1,8.8481885E-1,5.9500016E-2,1.01418495E-1,1.6757858E-1,4.9069637E-1,0E0,5.367574E-2,4.674453E-1,1.1680841E-2,0E0,1.1657572E-1,0E0,1.3307568E-1,0E0,0E0,0E0,0E0,0E0,1.3106331E-2,3.3872068E-2,1.888763E-1,1.6839816E-1,0E0,1.528896E-1,0E0,2.7549112E-1,0E0,0E0,0E0,1.0521959E-1,2.1564822E-1,0E0,0E0,0E0,0E0,0E0,0E0,0E0,0E0],"parents":[2147483647,0,0,1,1,2,2,3,3,4,4,5,5,6,6,8,8,9,9,10,10,12,12,14,14,20,20,21,21,22,22,23,23,25,25,27,27,31,31,32,32],"right_children":[2,4,6,8,10,12,14,-1,16,18,20,-1,22,-1,24,-1,-1,-1,-1,-1,26,28,30,32,-1,34,-1,36,-1,-1,-1,38,40,-1,-1,-1,-1,-1,-1,-1,-1],"split_conditions":[1.2480826E-1,-1.2951705E0,-2.0764646E-1,-1.4638506E0,-1.708478E0,3.521612E-2,3.0343595E-1,-4.8626848E-3,-1.0851463E0,-5.8020735E-1,1.1870792E0,-3.7847057E-2,1.772012E-1,-1.2943251E-1,1.3656029E0,9.448978E-2,1.5797589E-2,-2.805769E-2,1.23116694E-1,1.3148923E-1,1.313314E0,7.004095E-1,8.334481E-1,-1.1621319E0,-9.0963036E-2,1.7647188E0,9.1317885E-2,-2.0150307E-1,1.138409E-1,9.142231E-2,-1.5832977E-2,-1.2951705E0,-1.0299852E0,-2.8146898E-2,8.551011E-2,8.095105E-2,-5.3934984E-2,-5.9762425E-3,-1.00716576E-1,-8.6353965E-2,1.689251E-2],"split_indices":[4,2,3,1,4,2,1,0,1,1,1,0,1,0,2,0,0,0,0,0,1,2,2,2,0,2,0,1,0,0,0,2,6,0,0,0,0,0,0,0,0],"split_type":[0,0,0,0,0,0,0,0,0,0,0,0,0,0,0,0,0,0,0,0,0,0,0,0,0,0,0,0,0,0,0,0,0,0,0,0,0,0,0,0,0],"sum_hessian":[6.453917E1,2.7655788E1,3.6883377E1,4.6848907E0,2.2970898E1,1.3939545E1,2.2943834E1,1.4593421E0,3.2255487E0,5.8813457E0,1.7089552E1,1.1861672E0,1.2753378E1,4.020903E0,1.8922932E1,1.2978102E0,1.9277385E0,2.7958639E0,3.0854821E0,1.3280001E1,3.8095503E0,7.518506E0,5.2348714E0,1.7650808E1,1.2721224E0,2.5275824E0,1.2819678E0,5.313924E0,2.2045827E0,1.12939E0,4.105481E0,3.646694E0,1.4004114E1,1.412899E0,1.1146834E0,4.253069E0,1.0608549E0,1.9576097E0,1.6890843E0,1.0964584E0,1.2907656E1],"tree_param":{"num_deleted":"0","num_feature":"7","num_nodes":"41","size_leaf_vector":"1"}},{"base_weights":[-6.672442E-2,-2.0985593E-1,1.7896126E-1,-2.7759114E-1,1.8207124E-1,-1.1392003E-2,2.0902115E-1,-2.0736517E-1,-1.353235E-1,2.5928843E-1,-1.720608E-2,1.6435541E-1,1.1232357E-1,-2.6246586E-1,-1.1784799E-1,2.756918E-2,1.0727863E-1,2.2393548E-1,9.86831E-2,-1.506066E-1,-1.2583943E-1,1.8122777E-1,-3.0532902E-1,9.973351E-2,4.3018103E-2,-6.0180653E-2,1.6057639E-1,-8.781526E-3,-1.08368285E-1,1.0126043E-1,-5.365194E-3,-1.21026E-1,-2.666176E-2,6.981995E-2,1.714913E-2],"categories":[],"categories_nodes":[],"categories_segments":[],"categories_sizes":[],"default_left":[0,0,0,0,0,0,0,0,0,0,0,0,0,0,0,0,0,0,0,0,0,0,0,0,0,0,0,0,0,0,0,0,0,0,0],"id":29,"left_children":[1,3,5,7,9,-1,11,13,-1,15,-1,17,-1,19,21,-1,-1,23,25,27,-1,29,31,-1,-1,-1,33,-1,-1,-1,-1,-1,-1,-1,-1],"loss_changes":[1.8639076E0,9.339714E-1,1.3613063E-1,2.5697565E-1,1.1669496E-1,0E0,6.714809E-2,7.9214394E-2,0E0,3.8649023E-2,0E0,3.8541645E-2,0E0,1.6526335E-1,6.3416183E-1,0E0,0E0,1.6461045E-2,2.0188957E-1,2.2341266E-1,0E0,1.4936368E-1,1.0678351E-1,0E0,0E0,0E0,4.7478735E-2,0E0,0E0,0E0,0E0,0E0,0E0,0E0,0E0],"parents":[2147483647,0,0,1,1,2,2,3,3,4,4,6,6,7,7,9,9,11,11,13,13,14,14,17,17,18,18,19,19,21,21,22,22,26,26],"right_children":[2,4,6,8,10,-1,12,14,-1,16,-1,18,-1,20,22,-1,-1,24,26,28,-1,30,32,-1,-1,-1,34,-1,-1,-1,-1,-1,-1,-1,-1],"split_conditions":[1.1119624E0,2.0584452E0,-2.3514755E0,3.0343595E-1,9.893614E-1,-1.1392003E-2,1.3656029E0,1.2480826E-1,-1.353235E-1,-1.3376158E0,-1.720608E-2,-1.1621319E0,1.1232357E-1,-8.623459E-1,3.521612E-2,2.756918E-2,1.0727863E-1,8.0837494E-1,-1.0290933E0,-5.8020735E-1,-1.2583943E-1,-3.277378E-1,1.772012E-1,9.973351E-2,4.3018103E-2,-6.0180653E-2,1.9444877E0,-8.781526E-3,-1.08368285E-1,1.0126043E-1,-5.365194E-3,-1.21026E-1,-2.666176E-2,6.981995E-2,1.714913E-2],"split_indices":[4,5,6,1,0,0,2,4,0,1,0,2,0,4,2,0,0,1,2,1,0,1,1,0,0,0,1,0,0,0,0,0,0,0,0],"split_type":[0,0,0,0,0,0,0,0,0,0,0,0,0,0,0,0,0,0,0,0,0,0,0,0,0,0,0,0,0,0,0,0,0,0,0],"sum_hessian":[5.0936092E1,3.2277634E1,1.865846E1,2.7769985E1,4.5076475E0,2.238745E0,1.6419716E1,2.1330769E1,6.439216E0,3.3456683E0,1.1619793E0,1.4498077E1,1.921638E0,1.2007655E1,9.323114E0,1.9537464E0,1.3919219E0,6.338075E0,8.160002E0,8.1559515E0,3.8517034E0,3.605253E0,5.717861E0,1.3677604E0,4.9703145E0,1.0142919E0,7.1457105E0,5.8974934E0,2.2584584E0,1.630261E0,1.974992E0,3.3403692E0,2.3774917E0,3.4723372E0,3.673373E0],"tree_param":{"num_deleted":"0","num_feature":"7","num_nodes":"35","size_leaf_vector":"1"}},{"base_weights":[-7.749323E-2,4.590632E-2,-2.3690979E-1,-1.752625E-1,1.3273187E-1,-3.3988538E-1,-1.6236264E-1,-8.174604E-2,-1.0030699E-1,1.7269908E-1,-4.6501476E-2,-1.606482E-1,-1.2524694E-1,-7.898857E-3,-3.149139E-1,6.580925E-2,-1.7661437E-1,1.3581814E-1,9.622149E-2,1.294778E-3,-8.748376E-2,4.29085E-2,-1.0590616E-1,-1.4070949E-1,-1.2013805E-1,-8.733356E-2,-7.7456094E-2,1.8722488E-1,-2.4810731E-2,-8.024167E-2,-2.6453636E-3,-8.7892994E-2,1.2392406E-2,3.1770933E-2,-5.803827E-2,2.2945346E-2,1.2979558E-1],"categories":[],"categories_nodes":[],"categories_segments":[],"categories_sizes":[],"default_left":[0,0,0,0,0,0,0,0,0,0,0,0,0,0,0,0,0,0,0,0,0,0,0,0,0,0,0,0,0,0,0,0,0,0,0,0,0],"id":30,"left_children":[1,3,5,7,9,11,13,15,-1,17,-1,19,-1,21,23,-1,25,27,-1,-1,-1,-1,29,31,-1,-1,33,35,-1,-1,-1,-1,-1,-1,-1,-1,-1],"loss_changes":[9.789686E-1,5.7203436E-1,1.1089444E-1,9.893736E-2,2.6930684E-1,4.6578586E-2,3.3834228E-1,2.292413E-1,0E0,6.012535E-2,0E0,8.971067E-2,0E0,1.3663083E-1,5.171615E-2,0E0,4.131475E-2,2.0575404E-1,0E0,0E0,0E0,0E0,8.476111E-2,1.2102047E-1,0E0,0E0,1.135886E-1,3.4791267E-1,0E0,0E0,0E0,0E0,0E0,0E0,0E0,0E0,0E0],"parents":[2147483647,0,0,1,1,2,2,3,3,4,4,5,5,6,6,7,7,9,9,11,11,13,13,14,14,16,16,17,17,22,22,23,23,26,26,27,27],"right_children":[2,4,6,8,10,12,14,16,-1,18,-1,20,-1,22,24,-1,26,28,-1,-1,-1,-1,30,32,-1,-1,34,36,-1,-1,-1,-1,-1,-1,-1,-1,-1],"split_conditions":[-1.4899155E-1,2.6583028E-1,-3.277378E-1,1.6316801E0,3.5181692E0,-1.708478E0,-2.0764646E-1,9.893614E-1,-1.0030699E-1,5.5590546E-1,-4.6501476E-2,-5.8020735E-1,-1.2524694E-1,7.004095E-1,-1.1621319E0,6.580925E-2,-1.0851463E0,4.296707E-1,9.622149E-2,1.294778E-3,-8.748376E-2,4.29085E-2,1.772012E-1,-1.2951705E0,-1.2013805E-1,-8.733356E-2,-1.2951705E0,8.299184E-1,-2.4810731E-2,-8.024167E-2,-2.6453636E-3,-8.7892994E-2,1.2392406E-2,3.1770933E-2,-5.803827E-2,2.2945346E-2,1.2979558E-1],"split_indices":[6,4,1,2,5,4,3,0,0,1,0,1,0,2,2,0,1,1,0,0,0,0,1,2,0,0,2,4,0,0,0,0,0,0,0,0,0],"split_type":[0,0,0,0,0,0,0,0,0,0,0,0,0,0,0,0,0,0,0,0,0,0,0,0,0,0,0,0,0,0,0,0,0,0,0,0,0],"sum_hessian":[4.8211887E1,2.7577225E1,2.063466E1,7.4870553E0,2.009017E1,7.1704445E0,1.3464217E1,5.6687517E0,1.8183036E0,1.7990988E1,2.0991814E0,3.0941665E0,4.076278E0,7.212785E0,6.251432E0,1.0437162E0,4.625036E0,1.5937848E1,2.0531404E0,1.7973057E0,1.2968608E0,2.6588702E0,4.5539145E0,2.9298952E0,3.321537E0,1.2480685E0,3.3769672E0,1.301848E1,2.919367E0,1.0506212E0,3.5032933E0,1.2633935E0,1.6665018E0,1.3423326E0,2.0346346E0,9.874566E0,3.143915E0],"tree_param":{"num_deleted":"0","num_feature":"7","num_nodes":"37","size_leaf_vector":"1"}},{"base_weights":[1.07790455E-1,2.9577577E-1,-2.7938033E-2,1.2074002E-1,3.270867E-1,-1.2274008E-1,2.0687709E-2,-7.874285E-3,1.8023528E-1,1.392893E-1,2.4707387E-1,1.3299252E-1,-6.166985E-2,8.794925E-2,9.44679E-3,-9.977259E-3,9.6769616E-2,-3.410446E-2,1.6499187E-1,-8.994602E-2,-2.7519185E-2,-9.103128E-2,9.757924E-2,2.3427024E-1,4.953095E-2,4.395941E-3,-8.313926E-2,4.0888373E-2,1.0634335E-1,8.484648E-2,-1.5517684E-2,-5.4579396E-2,1.8887764E-2],"categories":[],"categories_nodes":[],"categories_segments":[],"categories_sizes":[],"default_left":[0,0,0,0,0,0,0,0,0,0,0,0,0,0,0,0,0,0,0,0,0,0,0,0,0,0,0,0,0,0,0,0,0],"id":31,"left_children":[1,3,5,7,9,-1,11,-1,13,-1,15,17,19,-1,-1,21,-1,-1,23,-1,25,-1,-1,27,29,31,-1,-1,-1,-1,-1,-1,-1],"loss_changes":[1.5402312E0,9.895134E-2,6.716964E-1,5.211348E-2,1.14109516E-1,0E0,3.1050918E-1,0E0,5.769314E-2,0E0,3.001743E-1,1.3040954E-1,1.5066615E-1,0E0,0E0,5.358942E-1,0E0,0E0,9.181309E-2,0E0,1.4612904E-1,0E0,0E0,4.369527E-2,1.5911411E-1,1.9818503E-1,0E0,0E0,0E0,0E0,0E0,0E0,0E0],"parents":[2147483647,0,0,1,1,2,2,3,3,4,4,6,6,8,8,10,10,11,11,12,12,15,15,18,18,20,20,23,23,24,24,25,25],"right_children":[2,4,6,8,10,-1,12,-1,14,-1,16,18,20,-1,-1,22,-1,-1,24,-1,26,-1,-1,28,30,32,-1,-1,-1,-1,-1,-1,-1],"split_conditions":[1.2480826E-1,-1.2951705E0,-8.097367E-1,-1.4638506E0,3.521612E-2,-1.2274008E-1,-2.0764646E-1,-7.874285E-3,-1.0851463E0,1.392893E-1,-1.708478E0,3.521612E-2,3.0343595E-1,8.794925E-2,9.44679E-3,-5.8020735E-1,9.6769616E-2,-3.410446E-2,1.772012E-1,-8.994602E-2,1.3656029E0,-9.103128E-2,9.757924E-2,7.004095E-1,8.334481E-1,-1.1621319E0,-8.313926E-2,4.0888373E-2,1.0634335E-1,8.484648E-2,-1.5517684E-2,-5.4579396E-2,1.8887764E-2],"split_indices":[4,2,6,1,2,0,3,0,1,0,4,2,1,0,0,1,0,0,1,0,2,0,0,2,2,2,0,0,0,0,0,0,0],"split_type":[0,0,0,0,0,0,0,0,0,0,0,0,0,0,0,0,0,0,0,0,0,0,0,0,0,0,0,0,0,0,0,0,0],"sum_hessian":[5.904195E1,2.426102E1,3.478093E1,4.4182243E0,1.9842796E1,3.0960324E0,3.1684898E1,1.4340706E0,2.9841537E0,5.5398765E0,1.430292E1,1.3145098E1,1.85398E1,1.1444075E0,1.8397462E0,3.4439585E0,1.0858961E1,1.2163067E0,1.1928791E1,1.3495264E0,1.7190273E1,1.8870016E0,1.5569569E0,6.8123016E0,5.1164894E0,1.611253E1,1.0777445E0,4.9288497E0,1.8834519E0,1.0058762E0,4.110613E0,3.3493917E0,1.2763138E1],"tree_param":{"num_deleted":"0","num_feature":"7","num_nodes":"33","size_leaf_vector":"1"}},{"base_weights":[-5.589731E-2,-1.8220595E-1,1.5123653E-1,-2.4754268E-1,1.6781858E-1,-1.230326E-2,1.7935282E-1,-1.7566435E-1,-1.3100654E-1,2.3850322E-1,-1.52127845E-2,1.3791022E-1,1.0320524E-1,-2.0458284E-1,-5.3132247E-2,2.67071E-2,9.884299E-2,1.9512706E-1,7.789473E-2,-1.4205648E-1,-1.13346614E-1,2.331197E-2,-3.8174015E-2,9.350059E-2,3.44368E-2,-5.7127092E-2,1.3775526E-1,-6.278174E-2,3.2357976E-2,6.2121715E-2,1.3117587E-2],"categories":[],"categories_nodes":[],"categories_segments":[],"categories_sizes":[],"default_left":[0,0,0,0,0,0,0,0,0,0,0,0,0,0,0,0,0,0,0,0,0,0,0,0,0,0,0,0,0,0,0],"id":32,"left_children":[1,3,5,7,9,-1,11,13,-1,15,-1,17,-1,19,21,-1,-1,23,25,27,-1,-1,-1,-1,-1,-1,29,-1,-1,-1,-1],"loss_changes":[1.2718052E0,7.275456E-1,1.0768545E-1,2.7244914E-1,9.4184265E-2,0E0,6.4331174E-2,6.100142E-2,0E0,2.7659565E-2,0E0,3.5467774E-2,0E0,1.20281756E-1,6.0542528E-2,0E0,0E0,2.8724909E-2,1.6863194E-1,2.4771667E-1,0E0,0E0,0E0,0E0,0E0,0E0,4.1973725E-2,0E0,0E0,0E0,0E0],"parents":[2147483647,0,0,1,1,2,2,3,3,4,4,6,6,7,7,9,9,11,11,13,13,14,14,17,17,18,18,19,19,26,26],"right_children":[2,4,6,8,10,-1,12,14,-1,16,-1,18,-1,20,22,-1,-1,24,26,28,-1,-1,-1,-1,-1,-1,30,-1,-1,-1,-1],"split_conditions":[1.1119624E0,2.0584452E0,-2.3514755E0,3.0343595E-1,9.893614E-1,-1.230326E-2,1.3656029E0,1.772012E-1,-1.3100654E-1,-1.3376158E0,-1.52127845E-2,-1.1621319E0,1.0320524E-1,-3.277378E-1,-6.299772E-1,2.67071E-2,9.884299E-2,8.0837494E-1,-1.0290933E0,1.2480826E-1,-1.13346614E-1,2.331197E-2,-3.8174015E-2,9.350059E-2,3.44368E-2,-5.7127092E-2,1.9444877E0,-6.278174E-2,3.2357976E-2,6.2121715E-2,1.3117587E-2],"split_indices":[4,5,6,1,0,0,2,1,0,1,0,2,0,1,2,0,0,1,2,4,0,0,0,0,0,0,1,0,0,0,0],"split_type":[0,0,0,0,0,0,0,0,0,0,0,0,0,0,0,0,0,0,0,0,0,0,0,0,0,0,0,0,0,0,0],"sum_hessian":[4.655796E1,2.8996479E1,1.7561483E1,2.4682034E1,4.3144455E0,2.1821618E0,1.5379322E1,1.928294E1,5.3990927E0,3.1909103E0,1.1235352E0,1.3755001E1,1.6243212E0,1.5059224E1,4.223716E0,1.9558296E0,1.2350808E0,5.889173E0,7.8658276E0,1.24027605E1,2.6564636E0,1.5098382E0,2.7138777E0,1.2281222E0,4.661051E0,1.0369024E0,6.828925E0,9.902165E0,2.5005953E0,3.239E0,3.5899253E0],"tree_param":{"num_deleted":"0","num_feature":"7","num_nodes":"31","size_leaf_vector":"1"}},{"base_weights":[-6.627238E-2,4.45668E-2,-2.1290484E-1,-1.0070257E-1,1.3563102E-1,-3.1880996E-1,-1.4038312E-1,-1.0522222E-2,-1.0931995E-1,1.9930981E-1,-9.322058E-2,-1.4412639E-1,-1.2022933E-1,1.5388009E-3,-2.9240105E-1,-1.2373103E-1,1.1878082E-1,1.20814174E-1,3.9301905E-1,-9.469125E-4,-7.9961225E-2,4.1787244E-2,-2.785282E-2,-1.2076706E-1,-1.1506703E-1,-1.6067977E-1,-2.0543835E-3,7.425594E-3,5.2843403E-2,1.0365703E-1,5.2112326E-2,1.3871118E-1,3.1122694E-2,-8.3052576E-2,1.5650475E-2,-7.9907134E-2,-1.0704867E-2,5.354971E-2,-3.6506906E-2],"categories":[],"categories_nodes":[],"categories_segments":[],"categories_sizes":[],"default_left":[0,0,0,0,0,0,0,0,0,0,0,0,0,0,0,0,0,0,0,0,0,0,0,0,0,0,0,0,0,0,0,0,0,0,0,0,0,0,0],"id":33,"left_children":[1,3,5,7,9,11,13,15,-1,17,-1,19,-1,21,23,25,27,29,31,-1,-1,-1,-1,33,-1,35,-1,-1,-1,-1,37,-1,-1,-1,-1,-1,-1,-1,-1],"loss_changes":[7.5816095E-1,3.7164658E-1,1.0888004E-1,2.5777602E-1,5.468486E-1,4.7371924E-2,2.951571E-1,1.4976971E-1,0E0,1.8879867E-1,0E0,6.657401E-2,0E0,1.1771289E-1,5.6947768E-2,2.2262357E-2,2.1626145E-2,1.7500074E-1,3.3026934E-2,0E0,0E0,0E0,0E0,1.1563501E-1,0E0,4.4202343E-2,0E0,0E0,0E0,0E0,2.579107E-1,0E0,0E0,0E0,0E0,0E0,0E0,0E0,0E0],"parents":[2147483647,0,0,1,1,2,2,3,3,4,4,5,5,6,6,7,7,9,9,11,11,13,13,14,14,15,15,16,16,17,17,18,18,23,23,25,25,30,30],"right_children":[2,4,6,8,10,12,14,16,-1,18,-1,20,-1,22,24,26,28,30,32,-1,-1,-1,-1,34,-1,36,-1,-1,-1,-1,38,-1,-1,-1,-1,-1,-1,-1,-1],"split_conditions":[-1.4899155E-1,1.772012E-1,-3.277378E-1,-4.9693856E-1,1.6316801E0,-1.708478E0,-2.0764646E-1,-1.0290933E0,-1.0931995E-1,-4.9693856E-1,-9.322058E-2,-5.8020735E-1,-1.2022933E-1,7.004095E-1,-1.1621319E0,6.8889636E-1,9.893614E-1,-8.9605457E-1,1.1119624E0,-9.469125E-4,-7.9961225E-2,4.1787244E-2,-2.785282E-2,-1.2951705E0,-1.1506703E-1,-1.0851463E0,-2.0543835E-3,7.425594E-3,5.2843403E-2,1.0365703E-1,9.893614E-1,1.3871118E-1,3.1122694E-2,-8.3052576E-2,1.5650475E-2,-7.9907134E-2,-1.0704867E-2,5.354971E-2,-3.6506906E-2],"split_indices":[6,1,1,2,2,4,3,2,0,2,0,1,0,2,2,4,0,2,4,0,0,0,0,2,0,1,0,0,0,0,0,0,0,0,0,0,0,0,0],"split_type":[0,0,0,0,0,0,0,0,0,0,0,0,0,0,0,0,0,0,0,0,0,0,0,0,0,0,0,0,0,0,0,0,0,0,0,0,0,0,0],"sum_hessian":[4.5064716E1,2.6061186E1,1.9003532E1,1.0001132E1,1.6060053E1,6.3436675E0,1.2659864E1,8.227394E0,1.7737378E0,1.4539349E1,1.5207053E0,2.9067116E0,3.4369562E0,7.059286E0,5.6005783E0,4.409678E0,3.8177164E0,1.1502107E1,3.0372417E0,1.8276976E0,1.0790138E0,2.676722E0,4.382564E0,2.7491467E0,2.8514318E0,3.0658157E0,1.343862E0,1.988965E0,1.8287514E0,1.7497445E0,9.752362E0,1.9672447E0,1.0699971E0,1.129199E0,1.6199478E0,1.0484797E0,2.0173361E0,5.630735E0,4.121627E0],"tree_param":{"num_deleted":"0","num_feature":"7","num_nodes":"39","size_leaf_vector":"1"}},{"base_weights":[9.1391265E-2,2.6034153E-1,-2.2260323E-2,9.8189905E-2,2.9237905E-1,-1.1748288E-1,2.2018556E-2,-1.4156141E-2,4.8887968E-2,1.3365957E-1,2.0630796E-1,-9.525542E-2,7.4294545E-2,-2.4277423E-2,2.8327903E-1,-9.1812044E-2,-3.0734818E-2,1.264016E-1,-5.676305E-2,-8.189598E-2,9.075384E-2,3.216611E-1,4.1145965E-2,-7.9181775E-2,3.3511717E-2,6.112533E-2,1.3722727E-1,-1.4719155E-1,3.4793064E-2,5.1162016E-2,1.1992504E-1,-3.3870578E-2,9.871135E-2,-7.790216E-2,4.3332223E-2,-9.5485225E-2,2.8450103E-2,3.713281E-2,-1.3433269E-2],"categories":[],"categories_nodes":[],"categories_segments":[],"categories_sizes":[],"default_left":[0,0,0,0,0,0,0,0,0,0,0,0,0,0,0,0,0,0,0,0,0,0,0,0,0,0,0,0,0,0,0,0,0,0,0,0,0,0,0],"id":34,"left_children":[1,3,5,7,9,-1,11,-1,-1,-1,13,15,17,19,21,-1,23,25,27,-1,-1,29,-1,-1,31,33,-1,35,37,-1,-1,-1,-1,-1,-1,-1,-1,-1,-1],"loss_changes":[1.0741491E0,8.7942004E-2,5.6768835E-1,5.67496E-2,1.4858258E-1,0E0,2.0001838E-1,0E0,0E0,0E0,2.472375E-1,1.285197E-1,1.5966818E-1,4.3290728E-1,1.3272226E-2,0E0,1.4183757E-1,3.2397962E-1,6.342916E-2,0E0,0E0,1.8685818E-2,0E0,0E0,3.766632E-1,4.3197826E-1,0E0,1.8481737E-1,3.6047067E-2,0E0,0E0,0E0,0E0,0E0,0E0,0E0,0E0,0E0,0E0],"parents":[2147483647,0,0,1,1,2,2,3,3,4,4,6,6,10,10,11,11,12,12,13,13,14,14,16,16,17,17,18,18,21,21,24,24,25,25,27,27,28,28],"right_children":[2,4,6,8,10,-1,12,-1,-1,-1,14,16,18,20,22,-1,24,26,28,-1,-1,30,-1,-1,32,34,-1,36,38,-1,-1,-1,-1,-1,-1,-1,-1,-1,-1],"split_conditions":[1.2480826E-1,-1.2951705E0,-8.097367E-1,-1.4638506E0,3.521612E-2,-1.1748288E-1,-6.299772E-1,-1.4156141E-2,4.8887968E-2,1.3365957E-1,-1.708478E0,-8.6100304E-1,5.5590546E-1,-5.8020735E-1,1.1870792E0,-9.1812044E-2,3.0343595E-1,4.296707E-1,1.2325641E0,-8.189598E-2,9.075384E-2,-1.2113811E0,4.1145965E-2,-7.9181775E-2,-8.9605457E-1,3.521612E-2,1.3722727E-1,1.9444877E0,1.8182529E0,5.1162016E-2,1.1992504E-1,-3.3870578E-2,9.871135E-2,-7.790216E-2,4.3332223E-2,-9.5485225E-2,2.8450103E-2,3.713281E-2,-1.3433269E-2],"split_indices":[4,2,6,1,2,0,2,0,0,0,4,5,1,1,1,0,1,1,2,0,0,1,0,0,2,2,0,1,1,0,0,0,0,0,0,0,0,0,0],"split_type":[0,0,0,0,0,0,0,0,0,0,0,0,0,0,0,0,0,0,0,0,0,0,0,0,0,0,0,0,0,0,0,0,0,0,0,0,0,0,0],"sum_hessian":[5.4639183E1,2.1454708E1,3.3184475E1,4.2102413E0,1.7244467E1,2.7126799E0,3.0471796E1,1.3813192E0,2.8289223E0,4.7018256E0,1.2542641E1,9.141636E0,2.1330162E1,3.3103323E0,9.232308E0,1.2651565E0,7.876479E0,1.5287533E1,6.0426283E0,1.9732217E0,1.3371106E0,6.3603964E0,2.8719125E0,1.0298967E0,6.8465824E0,1.3758976E1,1.5285566E0,2.7343197E0,3.3083088E0,3.2516289E0,3.1087673E0,4.9915586E0,1.8550239E0,2.4002507E0,1.1358726E1,1.417309E0,1.3170105E0,1.2995203E0,2.0087886E0],"tree_param":{"num_deleted":"0","num_feature":"7","num_nodes":"39","size_leaf_vector":"1"}},{"base_weights":[-4.6149794E-2,-1.5570727E-1,1.2684457E-1,-7.66918E-2,-1.3014297E-1,9.1257945E-2,9.493003E-2,-1.4644828E-1,2.0738943E-1,1.6823502E-1,1.5528222E-2,-1.04694925E-2,-1.7993656E-1,5.6520347E-2,1.07526444E-1,7.2955385E-2,2.6197089E-2,-8.2489945E-2,1.18137844E-1,-1.2563442E-1,5.6073356E-2,-1.10544436E-1,-1.1299214E-1,2.9359754E-2,-2.954502E-3,1.833171E-1,3.4023345E-2,4.276578E-2,-9.270583E-2,5.5477243E-2,-5.7275943E-2,3.2406705E-3,9.4547935E-2,-2.66269E-3,1.7947935E-2],"categories":[],"categories_nodes":[],"categories_segments":[],"categories_sizes":[],"default_left":[0,0,0,0,0,0,0,0,0,0,0,0,0,0,0,0,0,0,0,0,0,0,0,0,0,0,0,0,0,0,0,0,0,0,0],"id":35,"left_children":[1,3,5,7,-1,9,-1,11,13,15,17,19,21,23,-1,-1,-1,-1,25,27,-1,-1,29,-1,-1,31,33,-1,-1,-1,-1,-1,-1,-1,-1],"loss_changes":[8.543033E-1,5.6901664E-1,9.00332E-2,4.774106E-1,0E0,9.20842E-2,0E0,8.325976E-2,9.050974E-2,2.70008E-2,3.094046E-1,1.3160674E-1,1.4695126E-1,1.0894878E-2,0E0,0E0,0E0,0E0,3.523694E-2,2.2120108E-1,0E0,0E0,3.2477134E-1,0E0,0E0,8.835317E-2,5.545987E-3,0E0,0E0,0E0,0E0,0E0,0E0,0E0,0E0],"parents":[2147483647,0,0,1,1,2,2,3,3,5,5,7,7,8,8,9,9,10,10,11,11,12,12,13,13,18,18,19,19,22,22,25,25,26,26],"right_children":[2,4,6,8,-1,10,-1,12,14,16,18,20,22,24,-1,-1,-1,-1,26,28,-1,-1,30,-1,-1,32,34,-1,-1,-1,-1,-1,-1,-1,-1],"split_conditions":[1.1119624E0,3.0343595E-1,1.3656029E0,2.0584452E0,-1.3014297E-1,-1.1621319E0,9.493003E-2,-1.2113811E0,-6.299772E-1,8.0837494E-1,3.0129346E-1,-1.3376158E0,-7.0644206E-1,-7.630159E-1,1.07526444E-1,7.2955385E-2,2.6197089E-2,-8.2489945E-2,1.9444877E0,-1.2951705E0,5.6073356E-2,-1.10544436E-1,-5.8020735E-1,2.9359754E-2,-2.954502E-3,1.8182529E0,1.2325641E0,4.276578E-2,-9.270583E-2,5.5477243E-2,-5.7275943E-2,3.2406705E-3,9.4547935E-2,-2.66269E-3,1.7947935E-2],"split_indices":[4,1,2,5,0,2,0,1,2,1,2,1,1,2,0,0,0,0,1,2,0,0,1,0,0,1,2,0,0,0,0,0,0,0,0],"split_type":[0,0,0,0,0,0,0,0,0,0,0,0,0,0,0,0,0,0,0,0,0,0,0,0,0,0,0,0,0,0,0,0,0,0,0],"sum_hessian":[4.303315E1,2.6408533E1,1.6624619E1,2.155891E1,4.849623E0,1.5244507E1,1.3801116E0,1.7697702E1,3.8612077E0,6.9542212E0,8.290285E0,3.756619E0,1.3941083E1,2.6191308E0,1.242077E0,2.5689726E0,4.385249E0,1.7255119E0,6.564773E0,2.601957E0,1.1546619E0,2.4726703E0,1.1468413E1,1.3213776E0,1.2977531E0,3.0342195E0,3.5305538E0,1.1470869E0,1.4548702E0,2.093183E0,9.37523E0,1.7830495E0,1.25117E0,1.5723934E0,1.9581602E0],"tree_param":{"num_deleted":"0","num_feature":"7","num_nodes":"35","size_leaf_vector":"1"}},{"base_weights":[-5.648155E-2,4.260559E-2,-1.8911652E-1,7.2915725E-2,-8.7631054E-2,-3.0031836E-1,-1.16780154E-1,-7.8985944E-2,1.7422147E-1,-3.8997605E-2,-1.1573207E-1,1.8389782E-2,-2.7195868E-1,1.7065669E-3,-1.0044514E-1,9.886994E-2,3.592692E-1,4.150352E-2,-2.1150107E-2,-1.0459387E-1,-1.1027758E-1,-9.563364E-2,1.0628034E-1,9.692932E-2,3.5242714E-2,1.2902623E-1,2.4664005E-2,-7.871646E-2,1.7599726E-2,-4.0218603E-2,2.6181964E-3,6.151508E-3,4.8120204E-2,4.4685464E-2,-3.23139E-2],"categories":[],"categories_nodes":[],"categories_segments":[],"categories_sizes":[],"default_left":[0,0,0,0,0,0,0,0,0,0,0,0,0,0,0,0,0,0,0,0,0,0,0,0,0,0,0,0,0,0,0,0,0,0,0],"id":36,"left_children":[1,3,5,7,-1,9,11,13,15,-1,-1,17,19,21,-1,23,25,-1,-1,27,-1,29,31,-1,33,-1,-1,-1,-1,-1,-1,-1,-1,-1,-1],"loss_changes":[5.761313E-1,2.8057972E-1,1.1508626E-1,3.867067E-1,0E0,4.7676384E-2,2.7655602E-1,2.1494281E-1,1.715554E-1,0E0,0E0,9.351951E-2,5.9032977E-2,1.00650325E-1,0E0,1.588645E-1,4.150921E-2,0E0,0E0,1.0845214E-1,0E0,2.174446E-2,1.8803433E-2,0E0,1.8539129E-1,0E0,0E0,0E0,0E0,0E0,0E0,0E0,0E0,0E0,0E0],"parents":[2147483647,0,0,1,1,2,2,3,3,5,5,6,6,7,7,8,8,11,11,12,12,13,13,15,15,16,16,19,19,21,21,22,22,24,24],"right_children":[2,4,6,8,-1,10,12,14,16,-1,-1,18,20,22,-1,24,26,-1,-1,28,-1,30,32,-1,34,-1,-1,-1,-1,-1,-1,-1,-1,-1,-1],"split_conditions":[-1.4899155E-1,1.6316801E0,-3.277378E-1,1.772012E-1,-8.7631054E-2,-1.708478E0,-2.0764646E-1,-4.9693856E-1,-4.9693856E-1,-3.8997605E-2,-1.1573207E-1,7.004095E-1,-1.1621319E0,-1.0290933E0,-1.0044514E-1,-8.9605457E-1,1.1119624E0,4.150352E-2,-2.1150107E-2,-1.2951705E0,-1.1027758E-1,6.8889636E-1,9.893614E-1,9.692932E-2,9.893614E-1,1.2902623E-1,2.4664005E-2,-7.871646E-2,1.7599726E-2,-4.0218603E-2,2.6181964E-3,6.151508E-3,4.8120204E-2,4.4685464E-2,-3.23139E-2],"split_indices":[6,2,1,1,0,4,3,2,2,0,0,2,2,2,0,2,4,0,0,2,0,4,0,0,0,0,0,0,0,0,0,0,0,0,0],"split_type":[0,0,0,0,0,0,0,0,0,0,0,0,0,0,0,0,0,0,0,0,0,0,0,0,0,0,0,0,0,0,0,0,0,0,0],"sum_hessian":[4.2224453E1,2.4557295E1,1.7667156E1,2.3235332E1,1.3219624E0,5.7208576E0,1.1946299E1,9.384371E0,1.3850962E1,2.7536159E0,2.967242E0,6.8558927E0,5.090406E0,7.889309E0,1.4950624E0,1.0933237E1,2.9177246E0,2.6812477E0,4.174645E0,2.6123354E0,2.4780707E0,4.1302485E0,3.7590604E0,1.5152806E0,9.417956E0,1.8838457E0,1.033879E0,1.019643E0,1.5926924E0,2.8106842E0,1.3195643E0,1.9876742E0,1.7713861E0,5.222204E0,4.195752E0],"tree_param":{"num_deleted":"0","num_feature":"7","num_nodes":"35","size_leaf_vector":"1"}},{"base_weights":[7.71102E-2,2.3054695E-1,-2.0751359E-2,7.672349E-2,2.6347136E-1,-1.1210026E-1,1.913506E-2,-1.2002663E-2,3.99322E-2,1.2836392E-1,1.7560409E-1,-8.445971E-2,6.57314E-2,-2.529844E-2,2.5011775E-1,-8.60804E-2,-2.5531596E-2,1.0071152E-1,-1.9909216E-2,-6.930253E-2,8.4468275E-2,1.5870328E-1,1.092337E-1,-1.3806416E-1,5.4180577E-2,4.184962E-2,2.688469E-1,7.8528345E-2,-6.2656105E-2,1.381354E-2,-8.776929E-2,5.6581642E-2,-4.854568E-3,-7.419678E-2,3.5468332E-2,1.2580597E-1,7.225321E-3],"categories":[],"categories_nodes":[],"categories_segments":[],"categories_sizes":[],"default_left":[0,0,0,0,0,0,0,0,0,0,0,0,0,0,0,0,0,0,0,0,0,0,0,0,0,0,0,0,0,0,0,0,0,0,0,0,0],"id":37,"left_children":[1,3,5,7,9,-1,11,-1,-1,-1,13,15,17,19,21,-1,23,25,-1,-1,-1,27,-1,29,31,33,35,-1,-1,-1,-1,-1,-1,-1,-1,-1,-1],"loss_changes":[7.8791213E-1,8.306563E-2,4.683218E-1,3.8275152E-2,1.6158521E-1,0E0,1.5223016E-1,0E0,0E0,0E0,1.9158468E-1,1.103767E-1,1.0612761E-1,3.3371508E-1,3.7240863E-2,0E0,8.586858E-2,1.6107826E-1,0E0,0E0,0E0,3.135136E-1,0E0,1.2455553E-1,5.8227718E-2,3.4025782E-1,1.4944178E-1,0E0,0E0,0E0,0E0,0E0,0E0,0E0,0E0,0E0,0E0],"parents":[2147483647,0,0,1,1,2,2,3,3,4,4,6,6,10,10,11,11,12,12,13,13,14,14,16,16,17,17,21,21,23,23,24,24,25,25,26,26],"right_children":[2,4,6,8,10,-1,12,-1,-1,-1,14,16,18,20,22,-1,24,26,-1,-1,-1,28,-1,30,32,34,36,-1,-1,-1,-1,-1,-1,-1,-1,-1,-1],"split_conditions":[1.2480826E-1,-1.2951705E0,-8.097367E-1,-1.4638506E0,3.521612E-2,-1.1210026E-1,-6.299772E-1,-1.2002663E-2,3.99322E-2,1.2836392E-1,-1.708478E0,-8.6100304E-1,1.8182529E0,-5.8020735E-1,1.6316801E0,-8.60804E-2,-1.1621319E0,4.296707E-1,-1.9909216E-2,-6.930253E-2,8.4468275E-2,5.0966438E-2,1.092337E-1,-1.2951705E0,9.893614E-1,3.521612E-2,5.5590546E-1,7.8528345E-2,-6.2656105E-2,1.381354E-2,-8.776929E-2,5.6581642E-2,-4.854568E-3,-7.419678E-2,3.5468332E-2,1.2580597E-1,7.225321E-3],"split_indices":[4,2,6,1,2,0,2,0,0,0,4,5,1,1,2,0,2,1,0,0,0,1,0,2,0,2,1,0,0,0,0,0,0,0,0,0,0],"split_type":[0,0,0,0,0,0,0,0,0,0,0,0,0,0,0,0,0,0,0,0,0,0,0,0,0,0,0,0,0,0,0,0,0,0,0,0,0],"sum_hessian":[5.1154427E1,1.9392756E1,3.1761673E1,4.006167E0,1.538659E1,2.3754382E0,2.9386234E1,1.3993952E0,2.6067715E0,4.011348E0,1.1375241E1,8.86489E0,2.0521343E1,3.2562575E0,8.118984E0,1.1261714E0,7.7387185E0,1.6412693E1,4.1086507E0,2.097402E0,1.1588554E0,5.833327E0,2.2856574E0,2.905245E0,4.8334737E0,1.3081828E1,3.3308651E0,4.780716E0,1.052611E0,1.6458957E0,1.2593495E0,1.0833291E0,3.7501445E0,2.2656832E0,1.0816145E1,1.620872E0,1.7099931E0],"tree_param":{"num_deleted":"0","num_feature":"7","num_nodes":"37","size_leaf_vector":"1"}},{"base_weights":[-3.842988E-2,-1.3322814E-1,1.0552945E-1,-5.8828805E-2,-1.2507425E-1,7.0994675E-2,8.981046E-2,-1.2015942E-1,1.8246743E-1,1.4321196E-1,1.5847379E-3,5.418506E-3,-1.5311942E-1,4.972306E-2,9.70057E-2,2.162391E-1,2.0086639E-2,-7.8028254E-2,9.795436E-2,-1.10016584E-1,5.632783E-2,-1.0419407E-1,-8.961921E-2,2.5562609E-2,-2.309986E-3,8.411737E-2,2.2120317E-2,1.590631E-1,2.358938E-2,3.681439E-2,-8.6389095E-2,4.95992E-2,-4.9171943E-2,1.4207416E-3,8.62419E-2,-2.3102202E-3,1.2998201E-2],"categories":[],"categories_nodes":[],"categories_segments":[],"categories_sizes":[],"default_left":[0,0,0,0,0,0,0,0,0,0,0,0,0,0,0,0,0,0,0,0,0,0,0,0,0,0,0,0,0,0,0,0,0,0,0,0,0],"id":38,"left_children":[1,3,5,7,-1,9,-1,11,13,15,17,19,21,23,-1,25,-1,-1,27,29,-1,-1,31,-1,-1,-1,-1,33,35,-1,-1,-1,-1,-1,-1,-1,-1],"loss_changes":[5.752344E-1,5.080986E-1,9.1776386E-2,3.3502054E-1,0E0,7.818187E-2,0E0,7.314724E-2,7.153362E-2,2.8150484E-2,2.5212067E-1,1.17443204E-1,1.3995677E-1,7.97906E-3,0E0,1.0972902E-2,0E0,0E0,2.9398106E-2,1.780596E-1,0E0,0E0,2.506387E-1,0E0,0E0,0E0,0E0,7.4542224E-2,3.0910282E-3,0E0,0E0,0E0,0E0,0E0,0E0,0E0,0E0],"parents":[2147483647,0,0,1,1,2,2,3,3,5,5,7,7,8,8,9,9,10,10,11,11,12,12,13,13,15,15,18,18,19,19,22,22,27,27,28,28],"right_children":[2,4,6,8,-1,10,-1,12,14,16,18,20,22,24,-1,26,-1,-1,28,30,-1,-1,32,-1,-1,-1,-1,34,36,-1,-1,-1,-1,-1,-1,-1,-1],"split_conditions":[1.1119624E0,3.0343595E-1,1.3656029E0,2.0584452E0,-1.2507425E-1,-1.1621319E0,8.981046E-2,-1.2113811E0,-6.299772E-1,8.0837494E-1,3.0129346E-1,-1.3376158E0,-7.0644206E-1,-7.630159E-1,9.70057E-2,9.893614E-1,2.0086639E-2,-7.8028254E-2,1.9444877E0,-1.2951705E0,5.632783E-2,-1.0419407E-1,-5.8020735E-1,2.5562609E-2,-2.309986E-3,8.411737E-2,2.2120317E-2,1.8182529E0,1.2325641E0,3.681439E-2,-8.6389095E-2,4.95992E-2,-4.9171943E-2,1.4207416E-3,8.62419E-2,-2.3102202E-3,1.2998201E-2],"split_indices":[4,1,2,5,0,2,0,1,2,1,2,1,1,2,0,0,0,0,1,2,0,0,1,0,0,0,0,1,2,0,0,0,0,0,0,0,0],"split_type":[0,0,0,0,0,0,0,0,0,0,0,0,0,0,0,0,0,0,0,0,0,0,0,0,0,0,0,0,0,0,0,0,0,0,0,0,0],"sum_hessian":[4.0120476E1,2.423566E1,1.5884815E1,2.0156738E1,4.0789223E0,1.4642355E1,1.2424599E0,1.647204E1,3.6846974E0,6.6549563E0,7.9873986E0,3.5982547E0,1.2873786E1,2.593751E0,1.0909464E0,2.4617636E0,4.1931925E0,1.6925583E0,6.2948403E0,2.4462461E0,1.1520087E0,2.07096E0,1.0802826E1,1.3040264E0,1.2897246E0,1.030338E0,1.4314257E0,2.8301988E0,3.4646416E0,1.19445E0,1.2517961E0,2.160962E0,8.641864E0,1.7562996E0,1.073899E0,1.5760376E0,1.8886038E0],"tree_param":{"num_deleted":"0","num_feature":"7","num_nodes":"37","size_leaf_vector":"1"}},{"base_weights":[-4.8259594E-2,3.9484125E-2,-1.671132E-1,6.551763E-2,-8.0266654E-2,-2.8039017E-1,-9.729079E-2,2.4598274E-2,1.0907464E-1,-3.405624E-2,-1.1109022E-1,3.0536423E-2,-2.53547E-1,-1.6006266E-1,6.469376E-2,4.032375E-2,-1.5664449E-2,-2.7106512E-2,-1.0591329E-1,4.5833536E-3,-8.907114E-2,9.1310166E-2,-3.2423332E-2,7.811731E-2,1.6043268E-2],"categories":[],"categories_nodes":[],"categories_segments":[],"categories_sizes":[],"default_left":[0,0,0,0,0,0,0,0,0,0,0,0,0,0,0,0,0,0,0,0,0,0,0,0,0],"id":39,"left_children":[1,3,5,7,-1,9,11,13,-1,-1,-1,15,17,19,21,-1,-1,-1,-1,-1,-1,23,-1,-1,-1],"loss_changes":[4.3336752E-1,2.1217781E-1,1.11697316E-1,2.746437E-1,0E0,5.052221E-2,2.5545993E-1,1.6966973E-1,0E0,0E0,0E0,7.3328E-2,6.0457498E-2,1.0354406E-1,9.443963E-2,0E0,0E0,0E0,0E0,0E0,0E0,9.147981E-2,0E0,0E0,0E0],"parents":[2147483647,0,0,1,1,2,2,3,3,5,5,6,6,7,7,11,11,12,12,13,13,14,14,21,21],"right_children":[2,4,6,8,-1,10,12,14,-1,-1,-1,16,18,20,22,-1,-1,-1,-1,-1,-1,24,-1,-1,-1],"split_conditions":[-1.4899155E-1,1.6316801E0,-3.277378E-1,1.0608444E0,-8.0266654E-2,-1.708478E0,-2.0764646E-1,1.2480826E-1,1.0907464E-1,-3.405624E-2,-1.1109022E-1,7.004095E-1,-1.1621319E0,-1.2951705E0,3.5181692E0,4.032375E-2,-1.5664449E-2,-2.7106512E-2,-1.0591329E-1,4.5833536E-3,-8.907114E-2,-8.9605457E-1,-3.2423332E-2,7.811731E-2,1.6043268E-2],"split_indices":[6,2,1,1,0,4,3,4,0,0,0,2,2,2,5,0,0,0,0,0,0,2,0,0,0],"split_type":[0,0,0,0,0,0,0,0,0,0,0,0,0,0,0,0,0,0,0,0,0,0,0,0,0],"sum_hessian":[3.9922733E1,2.335137E1,1.6571363E1,2.2251324E1,1.1000464E0,5.1692405E0,1.1402123E1,2.0517178E1,1.7341446E0,2.60223E0,2.5670106E0,6.714128E0,4.6879954E0,3.126402E0,1.7390776E1,2.7002544E0,4.0138736E0,2.4983702E0,2.1896253E0,1.7598205E0,1.3665816E0,1.5477829E1,1.9129477E0,1.7543957E0,1.37234335E1],"tree_param":{"num_deleted":"0","num_feature":"7","num_nodes":"25","size_leaf_vector":"1"}},{"base_weights":[6.426284E-2,2.0204811E-1,-1.9116536E-2,1.3292934E-1,3.0282384E-1,-1.0708723E-1,1.6937492E-2,2.0900936E-1,-3.6572486E-2,1.21602885E-1,2.3128664E-2,-7.618815E-2,5.9188586E-2,5.6804143E-2,2.9053172E-1,-8.0967516E-2,-2.2363057E-2,1.1740517E-1,-4.982419E-3,3.2479685E-2,-8.589014E-3,1.196448E-1,7.7000126E-2,-1.217823E-1,4.476962E-2,5.848575E-2,9.309551E-2,-3.826222E-2,5.8387052E-2,-4.92398E-2,8.553205E-2,1.48407305E-2,-8.29396E-2,4.5576885E-2,-4.2395475E-3,4.2367212E-2,-7.356602E-2,-2.3442945E-2,2.6257409E-2,3.8777843E-2,-5.4284125E-3],"categories":[],"categories_nodes":[],"categories_segments":[],"categories_sizes":[],"default_left":[0,0,0,0,0,0,0,0,0,0,0,0,0,0,0,0,0,0,0,0,0,0,0,0,0,0,0,0,0,0,0,0,0,0,0,0,0,0,0,0,0],"id":40,"left_children":[1,3,5,7,9,-1,11,13,-1,-1,-1,15,17,19,21,-1,23,25,27,-1,-1,-1,29,31,33,35,-1,37,39,-1,-1,-1,-1,-1,-1,-1,-1,-1,-1,-1,-1],"loss_changes":[5.709139E-1,8.99632E-2,3.9172748E-1,2.7503222E-1,1.2664807E-1,0E0,1.2083846E-1,1.11059785E-1,0E0,0E0,0E0,9.472768E-2,7.8666076E-2,2.4329951E-2,1.1846995E-1,0E0,6.320678E-2,1.06874585E-1,2.5223814E-2,0E0,0E0,0E0,2.1792153E-1,1.13190934E-1,3.9363176E-2,2.7732462E-1,0E0,4.572554E-2,2.483138E-2,0E0,0E0,0E0,0E0,0E0,0E0,0E0,0E0,0E0,0E0,0E0,0E0],"parents":[2147483647,0,0,1,1,2,2,3,3,4,4,6,6,7,7,11,11,12,12,13,13,14,14,16,16,17,17,18,18,22,22,23,23,24,24,25,25,27,27,28,28],"right_children":[2,4,6,8,10,-1,12,14,-1,-1,-1,16,18,20,22,-1,24,26,28,-1,-1,-1,30,32,34,36,-1,38,40,-1,-1,-1,-1,-1,-1,-1,-1,-1,-1,-1,-1],"split_conditions":[1.2480826E-1,-5.8020735E-1,-8.097367E-1,-7.0644206E-1,1.1870792E0,-1.0708723E-1,-6.299772E-1,-1.2951705E0,-3.6572486E-2,1.21602885E-1,2.3128664E-2,-8.6100304E-1,8.334481E-1,-1.0851463E0,7.004095E-1,-8.0967516E-2,-1.1621319E0,7.004095E-1,1.2325641E0,3.2479685E-2,-8.589014E-3,1.196448E-1,8.334481E-1,-1.2951705E0,9.893614E-1,-2.771134E-1,9.309551E-2,1.9444877E0,1.8182529E0,-4.92398E-2,8.553205E-2,1.48407305E-2,-8.29396E-2,4.5576885E-2,-4.2395475E-3,4.2367212E-2,-7.356602E-2,-2.3442945E-2,2.6257409E-2,3.8777843E-2,-5.4284125E-3],"split_indices":[4,1,6,1,1,0,2,2,0,0,0,5,2,1,2,0,2,2,2,0,0,0,2,2,0,5,0,1,1,0,0,0,0,0,0,0,0,0,0,0,0],"split_type":[0,0,0,0,0,0,0,0,0,0,0,0,0,0,0,0,0,0,0,0,0,0,0,0,0,0,0,0,0,0,0,0,0,0,0,0,0,0,0,0,0],"sum_hessian":[4.83584E1,1.769462E1,3.0663778E1,1.1871445E1,5.8231745E0,2.0985823E0,2.8565197E1,9.280614E0,2.5908308E0,3.4572723E0,2.3659024E0,8.664515E0,1.9900682E1,3.8288338E0,5.4517803E0,1.0112027E0,7.653312E0,9.999482E0,9.901199E0,2.2227285E0,1.6061053E0,3.0416245E0,2.4101555E0,2.756724E0,4.896588E0,8.658256E0,1.3412273E0,6.751639E0,3.14956E0,1.2143712E0,1.1957843E0,1.6311021E0,1.125622E0,1.1766877E0,3.7199001E0,7.2249627E0,1.4332927E0,5.413915E0,1.3377239E0,1.2765583E0,1.8730018E0],"tree_param":{"num_deleted":"0","num_feature":"7","num_nodes":"41","size_leaf_vector":"1"}},{"base_weights":[-3.0876243E-2,-1.1061677E-1,3.6512362E-3,-1.0075084E-1,9.934257E-2,-6.787213E-2,-8.844595E-2,3.9407212E-2,1.6867755E-1,-1.1197572E-1,7.728975E-2,1.4023533E-1,-1.2374044E-1,2.4202232E-1,6.1548848E-2,3.808842E-2,-1.668827E-1,-1.1538725E-2,4.380069E-2,2.2530971E-1,1.53255435E-2,1.9880226E-2,-8.064051E-2,1.0254382E-1,2.8612686E-2,-5.39473E-3,3.1175563E-2,-2.3874536E-2,5.9052493E-2,-9.125467E-2,-3.1908073E-2,9.018199E-2,1.8871484E-2],"categories":[],"categories_nodes":[],"categories_segments":[],"categories_sizes":[],"default_left":[0,0,0,0,0,0,0,0,0,0,0,0,0,0,0,0,0,0,0,0,0,0,0,0,0,0,0,0,0,0,0,0,0],"id":41,"left_children":[1,-1,3,5,7,9,-1,11,13,15,17,19,21,23,25,27,29,-1,-1,31,-1,-1,-1,-1,-1,-1,-1,-1,-1,-1,-1,-1,-1],"loss_changes":[4.535691E-1,0E0,3.7129197E-1,9.3508944E-2,7.385644E-2,1.1437041E-1,0E0,2.0973839E-1,5.328162E-2,1.14072666E-1,4.0925443E-2,4.6866357E-2,1.5558156E-1,3.778264E-2,1.8270385E-2,9.6292846E-2,4.8724174E-2,0E0,0E0,2.5666803E-2,0E0,0E0,0E0,0E0,0E0,0E0,0E0,0E0,0E0,0E0,0E0,0E0,0E0],"parents":[2147483647,0,0,2,2,3,3,4,4,5,5,7,7,8,8,9,9,10,10,11,11,12,12,13,13,14,14,15,15,16,16,19,19],"right_children":[2,-1,4,6,8,10,-1,12,14,16,18,20,22,24,26,28,30,-1,-1,32,-1,-1,-1,-1,-1,-1,-1,-1,-1,-1,-1,-1,-1],"split_conditions":[-5.6905824E-1,-1.1061677E-1,4.068523E-1,3.0343595E-1,3.0129346E-1,4.9199116E-1,-8.844595E-2,-1.1621319E0,1.9444877E0,-1.2113811E0,2.6583028E-1,8.0837494E-1,4.9199116E-1,1.2325641E0,1.2325641E0,-1.3376158E0,-7.0644206E-1,-1.1538725E-2,4.380069E-2,9.893614E-1,1.53255435E-2,1.9880226E-2,-8.064051E-2,1.0254382E-1,2.8612686E-2,-5.39473E-3,3.1175563E-2,-2.3874536E-2,5.9052493E-2,-9.125467E-2,-3.1908073E-2,9.018199E-2,1.8871484E-2],"split_indices":[5,0,4,1,2,3,0,2,1,1,4,1,3,2,2,1,1,0,0,0,0,0,0,0,0,0,0,0,0,0,0,0,0],"split_type":[0,0,0,0,0,0,0,0,0,0,0,0,0,0,0,0,0,0,0,0,0,0,0,0,0,0,0,0,0,0,0,0,0],"sum_hessian":[3.7767555E1,2.6044352E0,3.516312E1,1.679089E1,1.837223E1,1.5512526E1,1.2783642E0,1.0695264E1,7.6769667E0,1.2073061E1,3.439465E0,6.6969004E0,3.9983637E0,3.8095894E0,3.8673775E0,3.3161442E0,8.756917E0,1.4451791E0,1.994286E0,2.645267E0,4.051634E0,1.9661659E0,2.0321977E0,1.475012E0,2.3345773E0,1.5442604E0,2.323117E0,2.1909142E0,1.12523E0,1.4474138E0,7.3095026E0,1.2259152E0,1.4193518E0],"tree_param":{"num_deleted":"0","num_feature":"7","num_nodes":"33","size_leaf_vector":"1"}},{"base_weights":[-4.264475E-2,3.538925E-2,-1.4965802E-1,-6.59006E-2,8.810063E-2,-2.5958356E-1,-8.527116E-2,3.7342966E-2,-1.4389889E-1,8.743808E-2,5.1157422E-2,-2.940839E-2,-1.060103E-1,2.7512679E-2,-2.3353519E-1,1.8731925E-3,1.8096166E-2,-7.205038E-3,-6.3448064E-2,-1.3279686E-2,1.255089E-1,3.5619788E-2,-1.4229267E-2,-2.2220623E-2,-1.0133174E-1,-1.09507926E-1,5.364223E-2,1.1500489E-1,-7.967789E-2,1.6123516E-2,-5.7176214E-2,-6.183794E-2,3.9414905E-2],"categories":[],"categories_nodes":[],"categories_segments":[],"categories_sizes":[],"default_left":[0,0,0,0,0,0,0,0,0,0,0,0,0,0,0,0,0,0,0,0,0,0,0,0,0,0,0,0,0,0,0,0,0],"id":42,"left_children":[1,3,5,7,9,11,13,15,17,-1,19,-1,-1,21,23,-1,-1,-1,-1,25,27,-1,-1,-1,-1,29,-1,-1,31,-1,-1,-1,-1],"loss_changes":[3.3293572E-1,1.3126738E-1,9.6322566E-2,7.474962E-2,1.044176E-1,5.1615357E-2,2.0781693E-1,2.8400533E-3,3.6358103E-2,0E0,7.1875975E-2,0E0,0E0,5.8510065E-2,6.3225955E-2,0E0,0E0,0E0,0E0,1.8140905E-1,3.9556465E-1,0E0,0E0,0E0,0E0,9.565898E-2,0E0,0E0,1.5171474E-1,0E0,0E0,0E0,0E0],"parents":[2147483647,0,0,1,1,2,2,3,3,4,4,5,5,6,6,7,7,8,8,10,10,13,13,14,14,19,19,20,20,25,25,28,28],"right_children":[2,4,6,8,10,12,14,16,18,-1,20,-1,-1,22,24,-1,-1,-1,-1,26,28,-1,-1,-1,-1,30,-1,-1,32,-1,-1,-1,-1],"split_conditions":[-1.4899155E-1,-3.277378E-1,-3.277378E-1,-1.3376158E0,-8.9605457E-1,-1.708478E0,-2.0764646E-1,8.299184E-1,-1.2951705E0,8.743808E-2,4.068523E-1,-2.940839E-2,-1.060103E-1,7.004095E-1,-1.1621319E0,1.8731925E-3,1.8096166E-2,-7.205038E-3,-6.3448064E-2,1.0608444E0,4.296707E-1,3.5619788E-2,-1.4229267E-2,-2.2220623E-2,-1.0133174E-1,-7.630159E-1,5.364223E-2,1.1500489E-1,-4.9693856E-1,1.6123516E-2,-5.7176214E-2,-6.183794E-2,3.9414905E-2],"split_indices":[6,1,1,1,2,4,3,4,2,0,4,0,0,2,2,0,0,0,0,1,1,0,0,0,0,2,0,0,2,0,0,0,0],"split_type":[0,0,0,0,0,0,0,0,0,0,0,0,0,0,0,0,0,0,0,0,0,0,0,0,0,0,0,0,0,0,0,0,0],"sum_hessian":[3.823509E1,2.24985E1,1.5736589E1,7.615119E0,1.4883381E1,4.692913E0,1.1043676E1,3.5015175E0,4.1136017E0,1.2289608E0,1.3654421E1,2.4748702E0,2.2180429E0,6.7349E0,4.3087764E0,2.0281973E0,1.4733202E0,1.971812E0,2.1417894E0,7.7549477E0,5.899473E0,2.774065E0,3.960835E0,2.3793411E0,1.9294353E0,5.453073E0,2.3018746E0,2.2295244E0,3.6699488E0,1.9214256E0,3.5316474E0,2.3096156E0,1.3603332E0],"tree_param":{"num_deleted":"0","num_feature":"7","num_nodes":"33","size_leaf_vector":"1"}},{"base_weights":[5.4349575E-2,1.7499979E-1,-1.5321158E-2,1.0873757E-1,2.778591E-1,-1.0237962E-1,1.741807E-2,1.8314642E-1,-3.6139715E-2,1.16158776E-1,1.7553447E-2,-6.542428E-2,5.453741E-2,4.0751845E-2,2.660134E-1,1.56045975E-2,-9.643689E-2,1.05306745E-1,-8.949777E-4,-1.6514562E-2,2.8799288E-2,1.1364966E-1,6.3975886E-2,-3.3195607E-2,-7.884639E-2,3.385562E-2,8.145918E-2,-3.5382662E-2,6.393767E-2,-4.6146043E-2,8.080725E-2,-2.7150128E-2,3.661384E-2,-7.892914E-2,5.082846E-2,-2.1454884E-2,2.287693E-2,3.7340835E-2,-2.3309141E-3],"categories":[],"categories_nodes":[],"categories_segments":[],"categories_sizes":[],"default_left":[0,0,0,0,0,0,0,0,0,0,0,0,0,0,0,0,0,0,0,0,0,0,0,0,0,0,0,0,0,0,0,0,0,0,0,0,0,0,0],"id":43,"left_children":[1,3,5,7,9,-1,11,13,-1,-1,-1,15,17,19,21,-1,23,25,27,-1,-1,-1,29,31,-1,33,-1,35,37,-1,-1,-1,-1,-1,-1,-1,-1,-1,-1],"loss_changes":[3.999592E-1,8.8255405E-2,3.354759E-1,2.3037902E-1,1.2525332E-1,0E0,9.2785716E-2,1.0264775E-1,0E0,0E0,0E0,3.9369043E-2,5.80153E-2,3.0260209E-2,1.10218644E-1,0E0,7.347706E-2,1.1849407E-1,2.6478177E-2,0E0,0E0,0E0,1.8979895E-1,7.158424E-2,0E0,3.932698E-1,0E0,3.656888E-2,1.8837005E-2,0E0,0E0,0E0,0E0,0E0,0E0,0E0,0E0,0E0,0E0],"parents":[2147483647,0,0,1,1,2,2,3,3,4,4,6,6,7,7,11,11,12,12,13,13,14,14,16,16,17,17,18,18,22,22,23,23,25,25,27,27,28,28],"right_children":[2,4,6,8,10,-1,12,14,-1,-1,-1,16,18,20,22,-1,24,26,28,-1,-1,-1,30,32,-1,34,-1,36,38,-1,-1,-1,-1,-1,-1,-1,-1,-1,-1],"split_conditions":[1.2480826E-1,-5.8020735E-1,-8.097367E-1,-7.0644206E-1,1.1870792E0,-1.0237962E-1,-6.299772E-1,-1.2951705E0,-3.6139715E-2,1.16158776E-1,1.7553447E-2,-1.2951705E0,8.334481E-1,-1.4638506E0,7.004095E-1,1.56045975E-2,8.0837494E-1,4.296707E-1,1.2325641E0,-1.6514562E-2,2.8799288E-2,1.1364966E-1,8.334481E-1,5.5590546E-1,-7.884639E-2,3.521612E-2,8.145918E-2,1.9444877E0,1.8182529E0,-4.6146043E-2,8.080725E-2,-2.7150128E-2,3.661384E-2,-7.892914E-2,5.082846E-2,-2.1454884E-2,2.287693E-2,3.7340835E-2,-2.3309141E-3],"split_indices":[4,1,6,1,1,0,2,2,0,0,0,2,2,1,2,0,1,1,2,0,0,0,2,1,0,2,0,1,1,0,0,0,0,0,0,0,0,0,0],"split_type":[0,0,0,0,0,0,0,0,0,0,0,0,0,0,0,0,0,0,0,0,0,0,0,0,0,0,0,0,0,0,0,0,0,0,0,0,0,0,0],"sum_hessian":[4.6262432E1,1.6381845E1,2.9880585E1,1.1214553E1,5.1672926E0,1.8672204E0,2.8013365E1,8.617803E0,2.5967505E0,2.937727E0,2.2295659E0,8.432131E0,1.9581234E1,3.7190113E0,4.898791E0,1.6200479E0,6.8120832E0,9.750879E0,9.830355E0,1.3615501E0,2.3574615E0,2.5819554E0,2.3168354E0,5.805119E0,1.0069643E0,7.6613374E0,2.089542E0,6.7134075E0,3.1169467E0,1.2462777E0,1.0705577E0,4.5445952E0,1.2605234E0,2.106565E0,5.5547724E0,5.343352E0,1.3700559E0,1.2911911E0,1.8257555E0],"tree_param":{"num_deleted":"0","num_feature":"7","num_nodes":"39","size_leaf_vector":"1"}},{"base_weights":[-2.4142824E-2,-1.05862975E-1,7.3221982E-3,-7.603731E-2,9.1041185E-2,-4.6225104E-2,-8.312802E-2,6.281445E-2,8.273566E-2,-8.368211E-2,7.886942E-2,1.7508727E-1,3.2946806E-2,4.2063612E-2,-1.4592867E-1,-7.302449E-3,4.037987E-2,-9.4026735E-4,8.6488545E-2,1.0443763E-1,-3.2861453E-2,-1.3251833E-2,5.5664793E-2,-1.4604517E-2,-6.566113E-2,5.250126E-2,1.1030834E-2,-5.2786708E-2,2.6398554E-2],"categories":[],"categories_nodes":[],"categories_segments":[],"categories_sizes":[],"default_left":[0,0,0,0,0,0,0,0,0,0,0,0,0,0,0,0,0,0,0,0,0,0,0,0,0,0,0,0,0],"id":44,"left_children":[1,-1,3,5,7,9,-1,11,-1,13,15,17,19,21,23,-1,-1,-1,-1,25,27,-1,-1,-1,-1,-1,-1,-1,-1],"loss_changes":[3.8625735E-1,0E0,2.5000882E-1,9.507293E-2,7.567485E-2,8.566849E-2,0E0,5.045007E-2,0E0,1.1158153E-1,2.8603574E-2,6.730323E-2,7.1527764E-2,7.299437E-2,5.484906E-2,0E0,0E0,0E0,0E0,2.7835362E-2,1.5897411E-1,0E0,0E0,0E0,0E0,0E0,0E0,0E0,0E0],"parents":[2147483647,0,0,2,2,3,3,4,4,5,5,7,7,9,9,10,10,11,11,12,12,13,13,14,14,19,19,20,20],"right_children":[2,-1,4,6,8,10,-1,12,-1,14,16,18,20,22,24,-1,-1,-1,-1,26,28,-1,-1,-1,-1,-1,-1,-1,-1],"split_conditions":[-5.6905824E-1,-1.05862975E-1,5.4787433E-1,3.0343595E-1,1.3656029E0,4.9199116E-1,-8.312802E-2,1.2529844E0,8.273566E-2,-1.2113811E0,2.6583028E-1,2.6423347E0,-1.1621319E0,-1.3376158E0,-2.771134E-1,-7.302449E-3,4.037987E-2,-9.4026735E-4,8.6488545E-2,8.0837494E-1,1.8182529E0,-1.3251833E-2,5.5664793E-2,-1.4604517E-2,-6.566113E-2,5.250126E-2,1.1030834E-2,-5.2786708E-2,2.6398554E-2],"split_indices":[5,0,4,1,2,3,0,4,0,1,4,5,2,1,5,0,0,0,0,1,1,0,0,0,0,0,0,0,0],"split_type":[0,0,0,0,0,0,0,0,0,0,0,0,0,0,0,0,0,0,0,0,0,0,0,0,0,0,0,0,0],"sum_hessian":[3.6092793E1,2.2605546E0,3.3832237E1,1.6998491E1,1.6833748E1,1.5874555E1,1.1239367E0,1.5765044E1,1.0687032E0,1.2471321E1,3.4032338E0,2.2910094E0,1.3474034E1,4.2367682E0,8.234552E0,1.3907756E0,2.0124583E0,1.2676622E0,1.0233473E0,6.176832E0,7.297202E0,3.0786269E0,1.1581416E0,4.243914E0,3.9906385E0,2.2471845E0,3.9296477E0,3.132463E0,4.1647396E0],"tree_param":{"num_deleted":"0","num_feature":"7","num_nodes":"29","size_leaf_vector":"1"}},{"base_weights":[-3.4853432E-2,-1.0245835E-2,-1.00358956E-1,-1.3566655E-1,5.5501223E-2,-3.2697905E-2,-2.5941956E-1,2.9906789E-2,6.789668E-2,4.021881E-2,-9.531375E-2,-2.5516104E-2,-1.0810607E-1,8.1885085E-2,-8.703109E-2,2.1525633E-3,1.9227142E-2,-7.7734105E-2,2.1703823E-2,1.8446697E-2,1.08029336E-1,-1.5351178E-1,3.652165E-2,3.4572277E-2,-2.4720863E-2,8.251507E-2,-7.3298984E-3,1.5284877E-3,-1.019996E-1],"categories":[],"categories_nodes":[],"categories_segments":[],"categories_sizes":[],"default_left":[0,0,0,0,0,0,0,0,0,0,0,0,0,0,0,0,0,0,0,0,0,0,0,0,0,0,0,0,0],"id":45,"left_children":[1,3,-1,5,7,9,11,13,-1,15,17,-1,-1,19,21,-1,-1,-1,23,25,-1,27,-1,-1,-1,-1,-1,-1,-1],"loss_changes":[2.7661672E-1,3.0542228E-1,0E0,1.5353736E-1,9.995704E-2,4.074465E-2,6.844154E-2,1.4317039E-1,0E0,3.0410378E-3,9.467889E-2,0E0,0E0,2.7592403E-1,1.21007256E-1,0E0,0E0,0E0,4.4871826E-2,1.6176735E-1,0E0,1.8020141E-1,0E0,0E0,0E0,0E0,0E0,0E0,0E0],"parents":[2147483647,0,0,1,1,3,3,4,4,5,5,6,6,7,7,9,9,10,10,13,13,14,14,18,18,19,19,21,21],"right_children":[2,4,-1,6,8,10,12,14,-1,16,18,-1,-1,20,22,-1,-1,-1,24,26,-1,28,-1,-1,-1,-1,-1,-1,-1],"split_conditions":[1.313314E0,-3.277378E-1,-1.00358956E-1,-4.9693856E-1,1.0608444E0,-1.6907303E0,-1.708478E0,4.296707E-1,6.789668E-2,9.893614E-1,-1.0851463E0,-2.5516104E-2,-1.0810607E-1,4.068523E-1,-4.9693856E-1,2.1525633E-3,1.9227142E-2,-7.7734105E-2,-2.0764646E-1,-8.9605457E-1,1.08029336E-1,-6.299772E-1,3.652165E-2,3.4572277E-2,-2.4720863E-2,8.251507E-2,-7.3298984E-3,1.5284877E-3,-1.019996E-1],"split_indices":[1,1,0,2,1,6,4,1,0,0,1,0,0,4,2,0,0,0,3,2,0,2,0,0,0,0,0,0,0],"split_type":[0,0,0,0,0,0,0,0,0,0,0,0,0,0,0,0,0,0,0,0,0,0,0,0,0,0,0,0,0],"sum_hessian":[3.6975628E1,3.5125523E1,1.8501036E0,1.1714738E1,2.3410786E1,7.0843916E0,4.630346E0,2.1382137E1,2.0286484E0,3.4382305E0,3.6461613E0,2.3732193E0,2.2571268E0,1.5010016E1,6.372121E0,1.9875712E0,1.4506592E0,1.0133586E0,2.6328025E0,1.309124E1,1.9187762E0,5.033832E0,1.3382889E0,1.330465E0,1.3023376E0,1.0991528E0,1.1992087E1,3.2458887E0,1.7879431E0],"tree_param":{"num_deleted":"0","num_feature":"7","num_nodes":"29","size_leaf_vector":"1"}},{"base_weights":[4.5552503E-2,1.5422238E-1,-1.5003681E-2,9.02552E-2,2.5826523E-1,-9.800788E-2,1.467229E-2,1.6188623E-1,-3.449117E-2,1.1110853E-1,1.5924485E-2,-3.9119393E-2,5.9014685E-2,2.7137361E-2,2.4563387E-1,-7.801463E-2,2.812106E-2,1.6149986E-1,-9.179541E-3,-1.7504213E-2,2.414342E-2,1.0834767E-1,1.6570259E-2,8.7499075E-2,-1.16551794E-1,7.029078E-2,8.926444E-2,-4.8218474E-2,6.428497E-2,-2.3458987E-2,4.7731303E-2,2.8208867E-2,-8.756687E-2,5.2547414E-2,-5.1045716E-2,-2.6536169E-2,2.281969E-2,3.262689E-2,1.0949778E-3],"categories":[],"categories_nodes":[],"categories_segments":[],"categories_sizes":[],"default_left":[0,0,0,0,0,0,0,0,0,0,0,0,0,0,0,0,0,0,0,0,0,0,0,0,0,0,0,0,0,0,0,0,0,0,0,0,0,0,0],"id":46,"left_children":[1,3,5,7,9,-1,11,13,-1,-1,-1,15,17,19,21,-1,23,25,27,-1,-1,-1,-1,29,31,33,-1,35,37,-1,-1,-1,-1,-1,-1,-1,-1,-1,-1],"loss_changes":[3.033466E-1,8.622512E-2,2.8493854E-1,1.9103786E-1,1.1210993E-1,0E0,7.055327E-2,9.6137255E-2,0E0,0E0,0E0,2.0829791E-1,1.1387549E-1,2.5743328E-2,1.0089496E-1,0E0,1.07054316E-1,5.9483662E-2,3.3507477E-2,0E0,0E0,0E0,0E0,1.1406444E-1,1.6442177E-1,1.6061836E-1,0E0,4.4207077E-2,1.0679517E-2,0E0,0E0,0E0,0E0,0E0,0E0,0E0,0E0,0E0,0E0],"parents":[2147483647,0,0,1,1,2,2,3,3,4,4,6,6,7,7,11,11,12,12,13,13,14,14,16,16,17,17,18,18,23,23,24,24,25,25,27,27,28,28],"right_children":[2,4,6,8,10,-1,12,14,-1,-1,-1,16,18,20,22,-1,24,26,28,-1,-1,-1,-1,30,32,34,-1,36,38,-1,-1,-1,-1,-1,-1,-1,-1,-1,-1],"split_conditions":[1.2480826E-1,-5.8020735E-1,-8.097367E-1,-7.0644206E-1,1.1870792E0,-9.800788E-2,3.521612E-2,-1.2951705E0,-3.449117E-2,1.1110853E-1,1.5924485E-2,3.0343595E-1,1.772012E-1,-1.4638506E0,7.004095E-1,-7.801463E-2,8.0837494E-1,7.004095E-1,1.2325641E0,-1.7504213E-2,2.414342E-2,1.0834767E-1,1.6570259E-2,-8.9605457E-1,-1.2951705E0,-2.0150307E-1,8.926444E-2,1.9444877E0,1.8182529E0,-2.3458987E-2,4.7731303E-2,2.8208867E-2,-8.756687E-2,5.2547414E-2,-5.1045716E-2,-2.6536169E-2,2.281969E-2,3.262689E-2,1.0949778E-3],"split_indices":[4,1,6,1,1,0,2,2,0,0,0,1,1,1,2,0,1,2,2,0,0,0,0,2,2,1,0,1,1,0,0,0,0,0,0,0,0,0,0],"split_type":[0,0,0,0,0,0,0,0,0,0,0,0,0,0,0,0,0,0,0,0,0,0,0,0,0,0,0,0,0,0,0,0,0,0,0,0,0,0,0],"sum_hessian":[4.4745243E1,1.5458228E1,2.9287018E1,1.0729217E1,4.729011E0,1.6759287E0,2.7611088E1,8.109793E0,2.619424E0,2.5376232E0,2.1913881E0,1.2529438E1,1.508165E1,3.6158972E0,4.493895E0,2.2544928E0,1.0274945E1,5.4791374E0,9.602512E0,1.3532665E0,2.2626307E0,2.238711E0,2.2551842E0,7.56517E0,2.7097754E0,4.188055E0,1.2910826E0,6.494823E0,3.1076899E0,2.2550037E0,5.310166E0,1.4418414E0,1.2679342E0,3.1052473E0,1.0828075E0,5.1242156E0,1.3706075E0,1.3349682E0,1.7727216E0],"tree_param":{"num_deleted":"0","num_feature":"7","num_nodes":"39","size_leaf_vector":"1"}},{"base_weights":[-2.1166138E-2,-1.0087058E-1,6.914667E-3,-7.2595194E-2,7.7790156E-2,-4.3057807E-2,-7.915363E-2,2.6826026E-2,1.3869695E-1,9.032635E-3,-1.2086001E-1,1.05264865E-1,-9.250805E-2,8.787988E-2,7.411197E-2,-1.0282794E-1,1.2536922E-1,-8.567449E-2,-2.3213938E-2,1.8693875E-1,2.5476E-2,1.806032E-2,-6.344984E-2,-8.314967E-3,3.280165E-2,7.1356473E-3,-8.855481E-2,6.555603E-2,4.9241213E-3,3.4196403E-2,-3.22924E-2,8.3023205E-2,9.194637E-3,1.565702E-2,-4.2177862E-3],"categories":[],"categories_nodes":[],